{"learner":{"attributes":{},"feature_names":[],"feature_types":[],"gradient_booster":{"model":{"cats":{"enc":[],"feature_segments":[],"sorted_idx":[]},"gbtree_model_param":{"num_parallel_tree":"1","num_trees":"200"},"iteration_indptr":[0,1,2,3,4,5,6,7,8,9,10,11,12,13,14,15,16,17,18,19,20,21,22,23,24,25,26,27,28,29,30,31,32,33,34,35,36,37,38,39,40,41,42,43,44,45,46,47,48,49,50,51,52,53,54,55,56,57,58,59,60,61,62,63,64,65,66,67,68,69,70,71,72,73,74,75,76,77,78,79,80,81,82,83,84,85,86,87,88,89,90,91,92,93,94,95,96,97,98,99,100,101,102,103,104,105,106,107,108,109,110,111,112,113,114,115,116,117,118,119,120,121,122,123,124,125,126,127,128,129,130,131,132,133,134,135,136,137,138,139,140,141,142,143,144,145,146,147,148,149,150,151,152,153,154,155,156,157,158,159,160,161,162,163,164,165,166,167,168,169,170,171,172,173,174,175,176,177,178,179,180,181,182,183,184,185,186,187,188,189,190,191,192,193,194,195,196,197,198,199,200],"tree_info":[0,0,0,0,0,0,0,0,0,0,0,0,0,0,0,0,0,0,0,0,0,0,0,0,0,0,0,0,0,0,0,0,0,0,0,0,0,0,0,0,0,0,0,0,0,0,0,0,0,0,0,0,0,0,0,0,0,0,0,0,0,0,0,0,0,0,0,0,0,0,0,0,0,0,0,0,0,0,0,0,0,0,0,0,0,0,0,0,0,0,0,0,0,0,0,0,0,0,0,0,0,0,0,0,0,0,0,0,0,0,0,0,0,0,0,0,0,0,0,0,0,0,0,0,0,0,0,0,0,0,0,0,0,0,0,0,0,0,0,0,0,0,0,0,0,0,0,0,0,0,0,0,0,0,0,0,0,0,0,0,0,0,0,0,0,0,0,0,0,0,0,0,0,0,0,0,0,0,0,0,0,0,0,0,0,0,0,0,0,0,0,0,0,0,0,0,0,0,0,0],"trees":[{"base_weights":[-2.0284397E-3,1.2404611E0,-9.325539E-1,1.7324197E0,2.66742E-1,1.563249E-1,-1.4006623E0,1.916588E0,1.3604488E0,9.0282863E-1,-1.8324424E-1,6.580575E-1,-5.9051526E-1,-9.1606563E-1,-1.6342752E0,2.0255468E0,1.765528E0,1.6117344E0,1.0111905E0,1.2013808E0,-3.826126E-2,2.6791564E-1,-6.5772617E-1,1.0353072E0,2.4681261E-1,3.9403433E-1,-9.152432E-1,-2.627899E-1,-1.2102126E0,-1.3177409E0,-1.6999348E0,1.0218193E-1,8.971318E-2,9.011652E-2,5.779735E-2,9.200758E-2,7.5819954E-2,5.1472902E-2,-4.5206588E-2,7.9659626E-2,4.7716837E-2,1.7531088E-2,-2.5055682E-2,3.0515397E-2,4.0748017E-3,-2.1971721E-2,-5.099805E-2,6.320926E-2,3.1653162E-2,3.2703694E-2,-1.0999896E-2,3.040742E-2,-3.6124393E-2,-3.227337E-2,-6.6413276E-2,9.145297E-3,-2.3131896E-2,-4.64909E-2,-6.880785E-2,-5.522437E-2,-7.9582304E-2,-7.906031E-2,-8.823412E-2],"categories":[],"categories_nodes":[],"categories_segments":[],"categories_sizes":[],"default_left":[0,0,0,0,0,0,0,0,0,0,0,0,0,0,0,0,0,0,0,0,0,0,0,0,0,0,0,0,0,0,0,0,0,0,0,0,0,0,0,0,0,0,0,0,0,0,0,0,0,0,0,0,0,0,0,0,0,0,0,0,0,0,0],"id":0,"left_children":[1,3,5,7,9,11,13,15,17,19,21,23,25,27,29,31,33,35,37,39,41,43,45,47,49,51,53,55,57,59,61,-1,-1,-1,-1,-1,-1,-1,-1,-1,-1,-1,-1,-1,-1,-1,-1,-1,-1,-1,-1,-1,-1,-1,-1,-1,-1,-1,-1,-1,-1,-1,-1],"loss_changes":[1.0604413E4,1.8809912E3,2.673359E3,1.7613184E2,3.7784723E2,5.9154816E2,4.1372314E2,2.5106934E1,7.4502686E1,1.5369727E2,1.6578557E2,1.4622021E2,2.0321356E2,2.2936865E2,4.916748E1,5.410156E-1,1.4473877E1,8.159058E0,1.3724609E1,3.8668213E1,2.4056795E1,2.530765E1,2.9390701E1,4.4505615E1,8.6271164E1,3.8227005E1,5.2338837E1,3.325316E1,3.705713E1,2.3322754E1,1.2931152E1,0E0,0E0,0E0,0E0,0E0,0E0,0E0,0E0,0E0,0E0,0E0,0E0,0E0,0E0,0E0,0E0,0E0,0E0,0E0,0E0,0E0,0E0,0E0,0E0,0E0,0E0,0E0,0E0,0E0,0E0,0E0,0E0],"parents":[2147483647,0,0,1,1,2,2,3,3,4,4,5,5,6,6,7,7,8,8,9,9,10,10,11,11,12,12,13,13,14,14,15,15,16,16,17,17,18,18,19,19,20,20,21,21,22,22,23,23,24,24,25,25,26,26,27,27,28,28,29,29,30,30],"right_children":[2,4,6,8,10,12,14,16,18,20,22,24,26,28,30,32,34,36,38,40,42,44,46,48,50,52,54,56,58,60,62,-1,-1,-1,-1,-1,-1,-1,-1,-1,-1,-1,-1,-1,-1,-1,-1,-1,-1,-1,-1,-1,-1,-1,-1,-1,-1,-1,-1,-1,-1,-1,-1],"split_conditions":[-1.1822516E-1,-2.4131238E-3,-1.4432648E-1,-4.260367E-1,-5.037363E-1,4.0146115E-1,1.9805297E-1,-8.1225824E-1,-3.1997377E-1,1.0000155E0,3.6608684E-1,-4.4985217E-1,-9.838804E-1,1.172505E-1,1.0371215E-1,-1.9193007E-1,-7.6809466E-2,-1.1897421E0,3.6845894E0,-9.2611104E-1,-8.483621E-1,-3.250627E-1,8.7354904E-1,-5.0468224E-1,1.0515333E-1,1.9071548E0,8.5062534E-1,-3.5081744E-2,3.4963265E-1,5.868832E-1,5.2565706E-1,1.0218193E-1,8.971318E-2,9.011652E-2,5.779735E-2,9.200758E-2,7.5819954E-2,5.1472902E-2,-4.5206588E-2,7.9659626E-2,4.7716837E-2,1.7531088E-2,-2.5055682E-2,3.0515397E-2,4.0748017E-3,-2.1971721E-2,-5.099805E-2,6.320926E-2,3.1653162E-2,3.2703694E-2,-1.0999896E-2,3.040742E-2,-3.6124393E-2,-3.227337E-2,-6.6413276E-2,9.145297E-3,-2.3131896E-2,-4.64909E-2,-6.880785E-2,-5.522437E-2,-7.9582304E-2,-7.906031E-2,-8.823412E-2],"split_indices":[6,8,8,6,6,6,6,6,8,8,8,8,8,8,8,8,8,2,3,6,6,6,8,2,6,6,6,6,8,6,6,0,0,0,0,0,0,0,0,0,0,0,0,0,0,0,0,0,0,0,0,0,0,0,0,0,0,0,0,0,0,0,0],"split_type":[0,0,0,0,0,0,0,0,0,0,0,0,0,0,0,0,0,0,0,0,0,0,0,0,0,0,0,0,0,0,0,0,0,0,0,0,0,0,0,0,0,0,0,0,0,0,0,0,0,0,0,0,0,0,0,0,0,0,0,0,0,0,0],"sum_hessian":[9.170033E3,3.9266362E3,5.2433975E3,2.6081328E3,1.3185034E3,1.5766284E3,3.6667688E3,1.7416592E3,8.664736E2,5.458709E2,7.7263257E2,9.4313947E2,6.33489E2,1.1942948E3,2.472474E3,1.00462146E3,7.370377E2,5.0181293E2,3.6466068E2,4.141948E2,1.316761E2,3.962729E2,3.7635968E2,4.9110956E2,4.5202988E2,1.5706544E2,4.7642358E2,3.7138138E2,8.2291345E2,4.2838293E2,2.0440911E3,9.244708E2,8.015067E1,6.9322864E2,4.3809063E1,1.4237946E2,3.5943344E2,3.616737E2,2.9869816E0,1.5806111E2,2.5613367E2,7.168756E1,5.998855E1,1.3889465E2,2.5737827E2,2.3622046E2,1.4013922E2,3.1164175E2,1.7946782E2,2.4119876E2,2.1083112E2,1.3217393E2,2.4891514E1,2.897372E2,1.8668636E2,1.14998795E2,2.563826E2,3.0840585E2,5.1450757E2,2.4368791E2,1.8469504E2,7.30317E2,1.313774E3],"tree_param":{"num_deleted":"0","num_feature":"9","num_nodes":"63","size_leaf_vector":"1"}},{"base_weights":[-6.7404974E-3,1.1141889E0,-9.42264E-1,1.5489488E0,6.399052E-2,8.453964E-2,-1.3693231E0,1.7663748E0,1.0889838E0,7.620599E-1,-3.420586E-1,5.132316E-1,-6.4010423E-1,-9.319159E-1,-1.5719029E0,1.9155742E0,1.6025314E0,1.4125462E0,7.096006E-1,1.1783321E0,6.948786E-2,6.2588E-2,-7.3972124E-1,1.0093921E0,1.1452099E-1,3.3897445E-1,-9.65857E-1,-3.6014754E-1,-1.1869633E0,-1.4142895E0,-1.6641958E0,9.695822E-2,8.8443086E-2,8.3773695E-2,5.5307347E-2,8.2556024E-2,6.4031556E-2,4.3555483E-2,1.9241808E-2,7.722723E-2,4.5059677E-2,4.0974256E-2,-1.0878017E-2,2.6102249E-2,-8.382405E-3,-2.7989676E-2,-5.129232E-2,5.9750985E-2,3.484189E-2,2.6816858E-2,-1.1275718E-2,3.430313E-2,-1.0534118E-2,-3.704205E-2,-6.769679E-2,-2.9643932E-3,-2.708532E-2,-4.991154E-2,-7.133103E-2,-6.2320508E-2,-8.094012E-2,-7.625615E-2,-8.494726E-2],"categories":[],"categories_nodes":[],"categories_segments":[],"categories_sizes":[],"default_left":[0,0,0,0,0,0,0,0,0,0,0,0,0,0,0,0,0,0,0,0,0,0,0,0,0,0,0,0,0,0,0,0,0,0,0,0,0,0,0,0,0,0,0,0,0,0,0,0,0,0,0,0,0,0,0,0,0,0,0,0,0,0,0],"id":1,"left_children":[1,3,5,7,9,11,13,15,17,19,21,23,25,27,29,31,33,35,37,39,41,43,45,47,49,51,53,55,57,59,61,-1,-1,-1,-1,-1,-1,-1,-1,-1,-1,-1,-1,-1,-1,-1,-1,-1,-1,-1,-1,-1,-1,-1,-1,-1,-1,-1,-1,-1,-1,-1,-1],"loss_changes":[9.640828E3,1.9094824E3,2.1975503E3,2.9388135E2,3.476366E2,4.5789355E2,3.1214795E2,4.5986816E1,1.1585803E2,1.299429E2,1.24837166E2,1.8307031E2,1.75083E2,1.6330273E2,3.281201E1,1.8725586E-1,3.299951E1,1.4023621E1,2.2754578E1,2.7191315E1,3.6857697E1,4.084655E1,1.956607E1,2.309726E1,7.392397E1,2.6382748E1,3.4921906E1,1.8964561E1,3.3674683E1,2.8864014E1,4.7504883E0,0E0,0E0,0E0,0E0,0E0,0E0,0E0,0E0,0E0,0E0,0E0,0E0,0E0,0E0,0E0,0E0,0E0,0E0,0E0,0E0,0E0,0E0,0E0,0E0,0E0,0E0,0E0,0E0,0E0,0E0,0E0,0E0],"parents":[2147483647,0,0,1,1,2,2,3,3,4,4,5,5,6,6,7,7,8,8,9,9,10,10,11,11,12,12,13,13,14,14,15,15,16,16,17,17,18,18,19,19,20,20,21,21,22,22,23,23,24,24,25,25,26,26,27,27,28,28,29,29,30,30],"right_children":[2,4,6,8,10,12,14,16,18,20,22,24,26,28,30,32,34,36,38,40,42,44,46,48,50,52,54,56,58,60,62,-1,-1,-1,-1,-1,-1,-1,-1,-1,-1,-1,-1,-1,-1,-1,-1,-1,-1,-1,-1,-1,-1,-1,-1,-1,-1,-1,-1,-1,-1,-1,-1],"split_conditions":[-8.2629845E-2,9.678179E-2,-1.4432648E-1,-3.7257534E-1,-5.3512317E-1,4.644619E-1,2.1319005E-1,-8.1225824E-1,-2.791402E-1,7.693773E-1,4.3993953E-1,-5.2786016E-1,-9.838804E-1,1.104746E-1,5.2565706E-1,-2.6533163E-1,-6.99279E-2,-7.432984E-1,-3.779289E-2,-9.2611104E-1,-1.2957081E0,-3.1766888E-1,-2.132932E-1,-6.020135E-1,9.845202E-2,1.2767146E0,9.600105E-1,7.627674E-2,8.731875E-1,7.419688E-1,2.0596948E-1,9.695822E-2,8.8443086E-2,8.3773695E-2,5.5307347E-2,8.2556024E-2,6.4031556E-2,4.3555483E-2,1.9241808E-2,7.722723E-2,4.5059677E-2,4.0974256E-2,-1.0878017E-2,2.6102249E-2,-8.382405E-3,-2.7989676E-2,-5.129232E-2,5.9750985E-2,3.484189E-2,2.6816858E-2,-1.1275718E-2,3.430313E-2,-1.0534118E-2,-3.704205E-2,-6.769679E-2,-2.9643932E-3,-2.708532E-2,-4.991154E-2,-7.133103E-2,-6.2320508E-2,-8.094012E-2,-7.625615E-2,-8.494726E-2],"split_indices":[7,8,8,7,7,7,7,7,8,8,8,8,8,8,7,8,8,8,8,7,7,7,7,2,7,7,7,2,2,2,8,0,0,0,0,0,0,0,0,0,0,0,0,0,0,0,0,0,0,0,0,0,0,0,0,0,0,0,0,0,0,0,0],"split_type":[0,0,0,0,0,0,0,0,0,0,0,0,0,0,0,0,0,0,0,0,0,0,0,0,0,0,0,0,0,0,0,0,0,0,0,0,0,0,0,0,0,0,0,0,0,0,0,0,0,0,0,0,0,0,0,0,0,0,0,0,0,0,0],"sum_hessian":[9.191509E3,4.1813228E3,5.0101855E3,2.9567969E3,1.224526E3,1.4719327E3,3.538253E3,2.0058085E3,9.5098834E2,4.5000757E2,7.7451843E2,9.2500244E2,5.469303E2,1.1217617E3,2.4164912E3,1.0442238E3,9.615847E2,5.1178333E2,4.3920502E2,2.8063177E2,1.693758E2,3.8430582E2,3.9021262E2,4.114532E2,5.1354926E2,1.365317E2,4.103986E2,3.4677332E2,7.749884E2,8.984624E2,1.5180289E3,8.890532E2,1.5517055E2,8.3631506E2,1.25269615E2,1.781232E2,3.3366013E2,2.9220563E2,1.469994E2,1.1891873E2,1.6171306E2,4.6368828E1,1.23006966E2,1.2786741E2,2.5643842E2,2.413794E2,1.4883322E2,2.5637018E2,1.5508301E2,2.2895355E2,2.8459573E2,8.353453E1,5.2997158E1,2.616168E2,1.4878178E2,1.3100784E2,2.1576547E2,4.3644714E2,3.385413E2,4.9732004E2,4.0114233E2,3.1244846E2,1.2055804E3],"tree_param":{"num_deleted":"0","num_feature":"9","num_nodes":"63","size_leaf_vector":"1"}},{"base_weights":[-5.868592E-4,1.0805516E0,-8.944585E-1,1.4882373E0,7.799572E-2,9.318554E-2,-1.3168988E0,1.6841874E0,1.075397E0,7.193589E-1,-3.0591062E-1,5.124028E-1,-6.0594356E-1,-8.868572E-1,-1.5181344E0,1.7956133E0,1.5010176E0,1.2669601E0,5.4580283E-1,1.1154937E0,6.388273E-2,4.4219304E-2,-7.206916E-1,9.7429913E-1,1.3333516E-1,2.2598726E-1,-9.2715895E-1,-3.9205563E-1,-1.1574029E0,-1.254791E0,-1.5703726E0,9.166669E-2,8.24328E-2,7.937186E-2,5.1445514E-2,7.521659E-2,5.6037482E-2,3.2285187E-2,4.101949E-3,7.34235E-2,4.2960323E-2,3.054843E-2,-1.3239947E-2,1.2669775E-2,-1.5365607E-2,-1.883165E-2,-4.464027E-2,6.1517682E-2,3.4778807E-2,2.6645465E-2,-1.0113088E-2,3.374266E-2,-5.919162E-3,-3.641113E-2,-6.433685E-2,-1.0288412E-2,-3.594029E-2,-4.967734E-2,-6.819191E-2,-5.4479014E-2,-7.0701085E-2,-7.3114924E-2,-8.121108E-2],"categories":[],"categories_nodes":[],"categories_segments":[],"categories_sizes":[],"default_left":[0,0,0,0,0,0,0,0,0,0,0,0,0,0,0,0,0,0,0,0,0,0,0,0,0,0,0,0,0,0,0,0,0,0,0,0,0,0,0,0,0,0,0,0,0,0,0,0,0,0,0,0,0,0,0,0,0,0,0,0,0,0,0],"id":2,"left_children":[1,3,5,7,9,11,13,15,17,19,21,23,25,27,29,31,33,35,37,39,41,43,45,47,49,51,53,55,57,59,61,-1,-1,-1,-1,-1,-1,-1,-1,-1,-1,-1,-1,-1,-1,-1,-1,-1,-1,-1,-1,-1,-1,-1,-1,-1,-1,-1,-1,-1,-1,-1,-1],"loss_changes":[8.838805E3,1.6917935E3,2.0890095E3,2.3624365E2,2.9512845E2,4.401926E2,3.0213232E2,3.799756E1,9.5680176E1,1.1645764E2,1.0894452E2,1.6424396E2,1.5067593E2,1.495155E2,3.0874023E1,3.821045E0,2.9382812E1,2.2498901E1,1.1719185E1,2.4037903E1,3.0751062E1,3.0050148E1,1.9995255E1,2.9333496E1,6.9407074E1,2.4448528E1,2.813504E1,2.40494E1,2.3126709E1,8.986816E0,9.196289E0,0E0,0E0,0E0,0E0,0E0,0E0,0E0,0E0,0E0,0E0,0E0,0E0,0E0,0E0,0E0,0E0,0E0,0E0,0E0,0E0,0E0,0E0,0E0,0E0,0E0,0E0,0E0,0E0,0E0,0E0,0E0,0E0],"parents":[2147483647,0,0,1,1,2,2,3,3,4,4,5,5,6,6,7,7,8,8,9,9,10,10,11,11,12,12,13,13,14,14,15,15,16,16,17,17,18,18,19,19,20,20,21,21,22,22,23,23,24,24,25,25,26,26,27,27,28,28,29,29,30,30],"right_children":[2,4,6,8,10,12,14,16,18,20,22,24,26,28,30,32,34,36,38,40,42,44,46,48,50,52,54,56,58,60,62,-1,-1,-1,-1,-1,-1,-1,-1,-1,-1,-1,-1,-1,-1,-1,-1,-1,-1,-1,-1,-1,-1,-1,-1,-1,-1,-1,-1,-1,-1,-1,-1],"split_conditions":[-8.77977E-2,9.678179E-2,-1.3736387E-1,-3.7257534E-1,-5.3512317E-1,4.5481402E-1,2.1319005E-1,-6.9810224E-1,-1.2346009E-1,7.831709E-1,4.8053738E-1,-5.1818013E-1,-9.090744E-1,1.5763333E-1,1.0371215E-1,-3.7096694E-1,-9.118473E-2,-5.819931E-1,-4.0959977E-2,-9.4463474E-1,-1.0922124E0,-2.07166E-1,-3.4041703E-1,1.5229167E-1,9.845202E-2,8.1242836E-1,9.600105E-1,6.323343E-1,8.862827E-1,5.2565706E-1,5.149648E-1,9.166669E-2,8.24328E-2,7.937186E-2,5.1445514E-2,7.521659E-2,5.6037482E-2,3.2285187E-2,4.101949E-3,7.34235E-2,4.2960323E-2,3.054843E-2,-1.3239947E-2,1.2669775E-2,-1.5365607E-2,-1.883165E-2,-4.464027E-2,6.1517682E-2,3.4778807E-2,2.6645465E-2,-1.0113088E-2,3.374266E-2,-5.919162E-3,-3.641113E-2,-6.433685E-2,-1.0288412E-2,-3.594029E-2,-4.967734E-2,-6.819191E-2,-5.4479014E-2,-7.0701085E-2,-7.3114924E-2,-8.121108E-2],"split_indices":[6,8,8,6,6,6,6,6,8,8,8,8,8,8,8,8,8,8,5,6,6,6,6,6,6,6,6,2,2,6,6,0,0,0,0,0,0,0,0,0,0,0,0,0,0,0,0,0,0,0,0,0,0,0,0,0,0,0,0,0,0,0,0],"split_type":[0,0,0,0,0,0,0,0,0,0,0,0,0,0,0,0,0,0,0,0,0,0,0,0,0,0,0,0,0,0,0,0,0,0,0,0,0,0,0,0,0,0,0,0,0,0,0,0,0,0,0,0,0,0,0,0,0,0,0,0,0,0,0],"sum_hessian":[9.144125E3,4.138453E3,5.0056714E3,2.9417263E3,1.1967268E3,1.4998585E3,3.505813E3,1.9927908E3,9.489356E2,4.4778036E2,7.489465E2,9.377967E2,5.620618E2,1.1192899E3,2.386523E3,1.2335774E3,7.592133E2,6.958446E2,2.5309097E2,2.7866708E2,1.691133E2,4.0660858E2,3.4233792E2,4.2200754E2,5.157892E2,1.5664809E2,4.054138E2,3.9652805E2,7.227619E2,3.991829E2,1.9873401E3,9.7248694E2,2.610905E2,6.39745E2,1.1946833E2,2.6169534E2,4.3414926E2,2.079117E2,4.517927E1,1.1523199E2,1.634351E2,6.3147068E1,1.05966225E2,2.5509521E2,1.5151335E2,1.1521305E2,2.2712486E2,2.1816846E2,2.0383908E2,2.3518329E2,2.806059E2,6.7589554E1,8.9058525E1,2.6295773E2,1.4245605E2,2.5358398E2,1.4294405E2,4.0617624E2,3.1658563E2,1.9976176E2,1.9942113E2,6.70271E2,1.3170691E3],"tree_param":{"num_deleted":"0","num_feature":"9","num_nodes":"63","size_leaf_vector":"1"}},{"base_weights":[4.23374E-3,1.0074953E0,-8.71375E-1,1.2766608E0,3.068404E-1,-2.7323884E-1,-1.143588E0,1.5494245E0,8.7589633E-1,7.0764834E-1,-8.84781E-2,1.3782062E-1,-9.2514884E-1,-6.85156E-1,-1.3916156E0,1.6706051E0,1.3517697E0,1.4951931E0,7.304987E-1,9.090859E-1,2.0276134E-1,1.1555265E-1,-5.141284E-1,-4.579265E-2,9.253474E-1,-1.0475179E0,2.2326739E-1,-3.6973903E-1,-1.0459205E0,-1.2761945E0,-1.5685791E0,8.6853266E-2,7.801321E-2,6.0795467E-2,7.754949E-2,8.1545584E-2,6.361424E-2,1.537461E-2,5.25445E-2,1.2038805E-2,5.0227053E-2,1.955188E-2,-2.2548048E-2,-4.8574675E-2,1.0155267E-2,-1.9237947E-2,-4.318037E-2,2.2548322E-2,-3.5374805E-2,7.451641E-2,3.513951E-2,-1.2597139E-2,-6.442246E-2,4.495383E-2,-7.517324E-3,-6.562653E-2,-9.155239E-3,-3.980994E-2,-6.189024E-2,-8.140061E-2,-5.8186274E-2,-7.6241925E-2,-8.251232E-2],"categories":[],"categories_nodes":[],"categories_segments":[],"categories_sizes":[],"default_left":[0,0,0,0,0,0,0,0,0,0,0,0,0,0,0,0,0,0,0,0,0,0,0,0,0,0,0,0,0,0,0,0,0,0,0,0,0,0,0,0,0,0,0,0,0,0,0,0,0,0,0,0,0,0,0,0,0,0,0,0,0,0,0],"id":3,"left_children":[1,3,5,7,9,11,13,15,17,19,21,23,25,27,29,31,33,35,37,39,41,43,45,47,49,51,53,55,57,59,61,-1,-1,-1,-1,-1,-1,-1,-1,-1,-1,-1,-1,-1,-1,-1,-1,-1,-1,-1,-1,-1,-1,-1,-1,-1,-1,-1,-1,-1,-1,-1,-1],"loss_changes":[7.9840693E3,7.984053E2,7.898684E2,3.331128E2,1.8653333E2,4.0722733E2,3.782378E2,4.1316895E1,1.10690186E2,5.9259888E1,5.159189E1,1.3489218E2,8.281088E1,1.3306842E2,4.2180176E1,5.529541E0,1.6971191E1,5.0370483E0,1.36198E2,2.6392517E1,2.0851103E1,3.8450302E1,8.368832E0,2.4921652E2,2.1129211E1,1.0149542E2,1.4630092E1,1.101335E2,2.520282E1,5.0120605E1,5.185547E-1,0E0,0E0,0E0,0E0,0E0,0E0,0E0,0E0,0E0,0E0,0E0,0E0,0E0,0E0,0E0,0E0,0E0,0E0,0E0,0E0,0E0,0E0,0E0,0E0,0E0,0E0,0E0,0E0,0E0,0E0,0E0,0E0],"parents":[2147483647,0,0,1,1,2,2,3,3,4,4,5,5,6,6,7,7,8,8,9,9,10,10,11,11,12,12,13,13,14,14,15,15,16,16,17,17,18,18,19,19,20,20,21,21,22,22,23,23,24,24,25,25,26,26,27,27,28,28,29,29,30,30],"right_children":[2,4,6,8,10,12,14,16,18,20,22,24,26,28,30,32,34,36,38,40,42,44,46,48,50,52,54,56,58,60,62,-1,-1,-1,-1,-1,-1,-1,-1,-1,-1,-1,-1,-1,-1,-1,-1,-1,-1,-1,-1,-1,-1,-1,-1,-1,-1,-1,-1,-1,-1,-1,-1],"split_conditions":[-7.023664E-2,3.1574464E-1,-2.0825063E-1,-4.7200793E-1,-3.4041703E-1,5.2565706E-1,2.3454389E-1,-8.1225824E-1,-1.1708705E0,1.016765E0,1.1383681E0,-1.2255639E-1,-1.2292421E-1,7.297541E-1,9.4096524E-1,-6.871894E-1,-1.2019709E-1,-2.3890617E-1,-1.22679554E-1,-1.1850613E-1,1.6238048E0,-1.1928339E-1,-1.1822516E-1,-7.605025E-1,-5.63636E-1,-1.1708705E0,-4.8246953E-1,-1.2207797E-1,5.443668E-2,-1.2255639E-1,9.83467E-1,8.6853266E-2,7.801321E-2,6.0795467E-2,7.754949E-2,8.1545584E-2,6.361424E-2,1.537461E-2,5.25445E-2,1.2038805E-2,5.0227053E-2,1.955188E-2,-2.2548048E-2,-4.8574675E-2,1.0155267E-2,-1.9237947E-2,-4.318037E-2,2.2548322E-2,-3.5374805E-2,7.451641E-2,3.513951E-2,-1.2597139E-2,-6.442246E-2,4.495383E-2,-7.517324E-3,-6.562653E-2,-9.155239E-3,-3.980994E-2,-6.189024E-2,-8.140061E-2,-5.8186274E-2,-7.6241925E-2,-8.251232E-2],"split_indices":[6,2,2,6,6,6,6,6,2,2,2,3,3,2,2,2,3,6,3,3,2,3,6,2,2,2,2,3,6,3,6,0,0,0,0,0,0,0,0,0,0,0,0,0,0,0,0,0,0,0,0,0,0,0,0,0,0,0,0,0,0,0,0],"split_type":[0,0,0,0,0,0,0,0,0,0,0,0,0,0,0,0,0,0,0,0,0,0,0,0,0,0,0,0,0,0,0,0,0,0,0,0,0,0,0,0,0,0,0,0,0,0,0,0,0,0,0,0,0,0,0,0,0,0,0,0,0,0,0],"sum_hessian":[9.086663E3,4.2345815E3,4.8520815E3,3.0587153E3,1.1758665E3,1.5181777E3,3.3339038E3,1.8182992E3,1.2404161E3,5.83487E2,5.923794E2,9.315689E2,5.8660876E2,1.171806E3,2.1620977E3,1.1225944E3,6.9570483E2,2.3408545E2,1.00633075E3,4.1650937E2,1.6697766E2,4.009277E2,1.9145174E2,7.562012E2,1.7536778E2,5.3020123E2,5.640751E1,6.262765E2,5.455295E2,1.313562E3,8.485357E2,6.9140564E2,4.3118866E2,4.178506E2,2.7785428E2,1.4157216E2,9.251329E1,4.3455533E2,5.717754E2,5.2495415E1,3.6401395E2,1.2995236E2,3.70253E1,2.913195E1,3.7179575E2,1.4126096E2,5.019077E1,4.3211725E2,3.240839E2,4.7948917E1,1.2741886E2,1.2371845E2,4.0648282E2,1.9581392E1,3.6826115E1,1.02493454E2,5.23783E2,2.3927802E2,3.062515E2,3.1493344E2,9.986286E2,5.653878E2,2.8314786E2],"tree_param":{"num_deleted":"0","num_feature":"9","num_nodes":"63","size_leaf_vector":"1"}},{"base_weights":[4.0995283E-3,1.0111066E0,-7.7530295E-1,1.3553096E0,3.9637722E-2,1.5235083E-1,-1.1843369E0,1.5272032E0,9.662878E-1,6.2587714E-1,-3.4067953E-1,5.3967863E-1,-5.12934E-1,-7.5067073E-1,-1.401257E0,1.594394E0,1.1873323E0,1.2993743E0,6.695411E-1,9.759168E-1,1.398067E-1,3.0066814E-2,-6.3881546E-1,9.16351E-1,1.3360389E-1,3.5242623E-1,-7.966301E-1,-2.1129069E-1,-1.0326757E0,-1.2140204E0,-1.4870267E0,8.4111E-2,7.37666E-2,7.167033E-2,4.5379307E-2,7.2133034E-2,5.9087157E-2,4.32561E-2,1.953915E-2,6.822779E-2,3.512416E-2,3.9746266E-2,-6.044191E-3,2.3659572E-2,-8.647721E-3,-2.1771882E-2,-4.4547148E-2,7.731685E-2,4.0848017E-2,2.391405E-2,-1.2474752E-2,3.390845E-2,-1.0331306E-2,-2.4582228E-2,-5.2065887E-2,1.0303962E-2,-2.1398617E-2,-3.809542E-2,-5.8677968E-2,-5.2788462E-2,-6.8566985E-2,-5.1374722E-2,-7.495501E-2],"categories":[],"categories_nodes":[],"categories_segments":[],"categories_sizes":[],"default_left":[0,0,0,0,0,0,0,0,0,0,0,0,0,0,0,0,0,0,0,0,0,0,0,0,0,0,0,0,0,0,0,0,0,0,0,0,0,0,0,0,0,0,0,0,0,0,0,0,0,0,0,0,0,0,0,0,0,0,0,0,0,0,0],"id":4,"left_children":[1,3,5,7,9,11,13,15,17,19,21,23,25,27,29,31,33,35,37,39,41,43,45,47,49,51,53,55,57,59,61,-1,-1,-1,-1,-1,-1,-1,-1,-1,-1,-1,-1,-1,-1,-1,-1,-1,-1,-1,-1,-1,-1,-1,-1,-1,-1,-1,-1,-1,-1,-1,-1],"loss_changes":[7.099904E3,1.319668E3,1.9350654E3,1.93396E2,2.3065424E2,4.025973E2,3.3186475E2,4.4222168E1,8.7670715E1,6.911841E1,6.938191E1,1.508887E2,1.4144786E2,1.7959375E2,3.6060547E1,1.5118652E1,2.1914429E1,5.390869E0,2.5602097E1,2.4169586E1,2.939809E1,2.5331015E1,1.744989E1,3.0796112E1,6.3008194E1,2.6120073E1,3.182788E1,3.6906467E1,2.8708252E1,1.7129639E1,7.4067383E0,0E0,0E0,0E0,0E0,0E0,0E0,0E0,0E0,0E0,0E0,0E0,0E0,0E0,0E0,0E0,0E0,0E0,0E0,0E0,0E0,0E0,0E0,0E0,0E0,0E0,0E0,0E0,0E0,0E0,0E0,0E0,0E0],"parents":[2147483647,0,0,1,1,2,2,3,3,4,4,5,5,6,6,7,7,8,8,9,9,10,10,11,11,12,12,13,13,14,14,15,15,16,16,17,17,18,18,19,19,20,20,21,21,22,22,23,23,24,24,25,25,26,26,27,27,28,28,29,29,30,30],"right_children":[2,4,6,8,10,12,14,16,18,20,22,24,26,28,30,32,34,36,38,40,42,44,46,48,50,52,54,56,58,60,62,-1,-1,-1,-1,-1,-1,-1,-1,-1,-1,-1,-1,-1,-1,-1,-1,-1,-1,-1,-1,-1,-1,-1,-1,-1,-1,-1,-1,-1,-1,-1,-1],"split_conditions":[-1.1822516E-1,1.4329016E-1,-1.4432648E-1,-3.7257534E-1,-5.3512317E-1,4.358946E-1,1.9805297E-1,-1.5872933E-1,-3.1997377E-1,7.693773E-1,4.3993953E-1,-4.4985217E-1,-1.0055696E0,1.3657059E-1,2.8154534E-1,-7.943006E-1,-6.3054484E-1,-6.876021E-1,-5.7251815E-2,-9.2611104E-1,-1.2957081E0,-3.4905288E-1,8.7354904E-1,-1.3995128E0,1.0515333E-1,1.2363123E0,7.1513015E-1,-2.1029519E-2,3.4963265E-1,5.2565706E-1,-8.023413E-1,8.4111E-2,7.37666E-2,7.167033E-2,4.5379307E-2,7.2133034E-2,5.9087157E-2,4.32561E-2,1.953915E-2,6.822779E-2,3.512416E-2,3.9746266E-2,-6.044191E-3,2.3659572E-2,-8.647721E-3,-2.1771882E-2,-4.4547148E-2,7.731685E-2,4.0848017E-2,2.391405E-2,-1.2474752E-2,3.390845E-2,-1.0331306E-2,-2.4582228E-2,-5.2065887E-2,1.0303962E-2,-2.1398617E-2,-3.809542E-2,-5.8677968E-2,-5.2788462E-2,-6.8566985E-2,-5.1374722E-2,-7.495501E-2],"split_indices":[6,8,8,6,6,6,6,8,8,8,8,8,8,8,8,6,6,8,8,6,6,6,8,8,6,6,6,6,8,6,2,0,0,0,0,0,0,0,0,0,0,0,0,0,0,0,0,0,0,0,0,0,0,0,0,0,0,0,0,0,0,0,0],"split_type":[0,0,0,0,0,0,0,0,0,0,0,0,0,0,0,0,0,0,0,0,0,0,0,0,0,0,0,0,0,0,0,0,0,0,0,0,0,0,0,0,0,0,0,0,0,0,0,0,0,0,0,0,0,0,0,0,0,0,0,0,0,0,0],"sum_hessian":[9.044034E3,3.9457417E3,5.0982925E3,2.9131743E3,1.0325673E3,1.5602982E3,3.5379941E3,2.0183972E3,8.947771E2,4.0603683E2,6.2653046E2,9.8627765E2,5.740205E2,1.1811343E3,2.3568599E3,1.6821527E3,3.3624445E2,4.1998334E2,4.7479376E2,2.3546259E2,1.7057423E2,2.7965955E2,3.468709E2,5.1101074E2,4.7526694E2,1.4166289E2,4.3235767E2,4.0611777E2,7.750165E2,7.452088E2,1.611651E3,9.605074E2,7.216454E2,1.7669423E2,1.5955022E2,1.8426566E2,2.3571768E2,2.7778925E2,1.9700452E2,9.559715E1,1.3986543E2,4.797163E1,1.22602615E2,8.745186E1,1.9220769E2,1.9350653E2,1.533644E2,6.7650566E1,4.4336017E2,2.5004819E2,2.2521875E2,8.93742E1,5.2288685E1,1.938041E2,2.3855356E2,1.3880397E2,2.673138E2,2.67435E2,5.075815E2,3.753482E2,3.6986063E2,4.3464035E1,1.568187E3],"tree_param":{"num_deleted":"0","num_feature":"9","num_nodes":"63","size_leaf_vector":"1"}},{"base_weights":[1.6299468E-3,9.652445E-1,-7.566761E-1,1.2235057E0,4.1353166E-1,-2.966488E-1,-1.1175793E0,1.4450271E0,8.503217E-1,8.181177E-1,1.2416508E-1,1.5939376E-1,-7.950267E-1,-2.6670346E-1,-1.243749E0,1.5465152E0,1.2809113E0,1.3977331E0,7.0868343E-1,9.632429E-1,-8.420951E-3,2.670186E-1,-2.8642836E-1,7.097573E-1,-4.7225975E-2,-5.584292E-1,-1.0403974E0,4.5722598E-1,-4.3397465E-1,-1.0813502E0,-1.4240296E0,8.033895E-2,7.179292E-2,5.6692947E-2,7.6811515E-2,3.0774638E-2,7.164707E-2,1.3601123E-2,5.551368E-2,-6.614534E-2,4.966346E-2,1.3346836E-2,-3.2167792E-2,-5.8749195E-2,1.6573763E-2,8.008612E-3,-1.9781234E-2,5.4490175E-2,2.2937642E-2,-3.0030912E-2,2.0800672E-2,-9.416158E-3,-3.3716537E-2,-3.7899237E-2,-6.3547924E-2,3.1055463E-2,-1.3966106E-2,2.1486788E-3,-3.49986E-2,-6.621593E-2,-3.981299E-2,-6.6686206E-2,-7.438865E-2],"categories":[],"categories_nodes":[],"categories_segments":[],"categories_sizes":[],"default_left":[0,0,0,0,0,0,0,0,0,0,0,0,0,0,0,0,0,0,0,0,0,0,0,0,0,0,0,0,0,0,0,0,0,0,0,0,0,0,0,0,0,0,0,0,0,0,0,0,0,0,0,0,0,0,0,0,0,0,0,0,0,0,0],"id":5,"left_children":[1,3,5,7,9,11,13,15,17,19,21,23,25,27,29,31,33,35,37,39,41,43,45,47,49,51,53,55,57,59,61,-1,-1,-1,-1,-1,-1,-1,-1,-1,-1,-1,-1,-1,-1,-1,-1,-1,-1,-1,-1,-1,-1,-1,-1,-1,-1,-1,-1,-1,-1,-1,-1],"loss_changes":[6.5572764E3,5.625857E2,8.3342725E2,2.2125854E2,1.4759644E2,5.022174E2,3.01739E2,2.6124268E1,7.6925354E1,6.3088226E1,4.328754E1,1.3130551E2,6.0708435E1,4.4351814E1,7.019409E1,4.6135254E0,2.268457E1,4.778839E0,1.4005194E2,3.202179E1,1.4077238E1,5.1237335E1,9.360193E0,2.9563568E1,2.1564577E2,2.3020966E1,3.2706543E1,8.493183E0,3.767164E1,8.851941E1,4.6813965E0,0E0,0E0,0E0,0E0,0E0,0E0,0E0,0E0,0E0,0E0,0E0,0E0,0E0,0E0,0E0,0E0,0E0,0E0,0E0,0E0,0E0,0E0,0E0,0E0,0E0,0E0,0E0,0E0,0E0,0E0,0E0,0E0],"parents":[2147483647,0,0,1,1,2,2,3,3,4,4,5,5,6,6,7,7,8,8,9,9,10,10,11,11,12,12,13,13,14,14,15,15,16,16,17,17,18,18,19,19,20,20,21,21,22,22,23,23,24,24,25,25,26,26,27,27,28,28,29,29,30,30],"right_children":[2,4,6,8,10,12,14,16,18,20,22,24,26,28,30,32,34,36,38,40,42,44,46,48,50,52,54,56,58,60,62,-1,-1,-1,-1,-1,-1,-1,-1,-1,-1,-1,-1,-1,-1,-1,-1,-1,-1,-1,-1,-1,-1,-1,-1,-1,-1,-1,-1,-1,-1,-1,-1],"split_conditions":[-1.1243123E-1,1.6285487E-1,2.8904217E-1,-4.7200793E-1,-4.6217144E-1,2.8081205E-1,-8.2914066E-1,-8.1225824E-1,-1.1897421E0,1.1540496E0,1.1383681E0,-8.709594E-1,9.4096524E-1,-1.5659684E0,5.502132E-1,-6.980762E-1,-1.2019709E-1,-6.2150264E-1,-1.22679554E-1,-1.21834375E-1,1.5966866E0,-1.2135644E-1,-3.4905288E-1,-1.3809754E0,-1.22317575E-1,-2.8079942E-2,5.443668E-2,1.3608121E0,5.51393E-1,-1.2255639E-1,6.335639E-1,8.033895E-2,7.179292E-2,5.6692947E-2,7.6811515E-2,3.0774638E-2,7.164707E-2,1.3601123E-2,5.551368E-2,-6.614534E-2,4.966346E-2,1.3346836E-2,-3.2167792E-2,-5.8749195E-2,1.6573763E-2,8.008612E-3,-1.9781234E-2,5.4490175E-2,2.2937642E-2,-3.0030912E-2,2.0800672E-2,-9.416158E-3,-3.3716537E-2,-3.7899237E-2,-6.3547924E-2,3.1055463E-2,-1.3966106E-2,2.1486788E-3,-3.49986E-2,-6.621593E-2,-3.981299E-2,-6.6686206E-2,-7.438865E-2],"split_indices":[6,2,6,6,6,2,2,6,2,2,2,2,2,2,2,2,3,1,3,3,2,3,6,2,3,6,6,6,6,3,6,0,0,0,0,0,0,0,0,0,0,0,0,0,0,0,0,0,0,0,0,0,0,0,0,0,0,0,0,0,0,0,0],"split_type":[0,0,0,0,0,0,0,0,0,0,0,0,0,0,0,0,0,0,0,0,0,0,0,0,0,0,0,0,0,0,0,0,0,0,0,0,0,0,0,0,0,0,0,0,0,0,0,0,0,0,0,0,0,0,0,0,0,0,0,0,0,0,0],"sum_hessian":[8.971785E3,3.9509092E3,5.020876E3,2.6903274E3,1.2605818E3,2.2081135E3,2.8127625E3,1.6864069E3,1.00392065E3,5.248795E2,7.357023E2,1.1533846E3,1.0547288E3,3.6362524E2,2.4491372E3,1.0368209E3,6.495859E2,2.045389E2,7.993818E2,4.4634415E2,7.853537E1,5.460652E2,1.8963708E2,3.141534E2,8.3923126E2,5.386317E2,5.16097E2,6.792418E1,2.9570105E2,1.2921509E3,1.1569863E3,6.625021E2,3.7431888E2,4.156378E2,2.3394809E2,9.605673E0,1.9493323E2,3.837722E2,4.156096E2,5.228095E0,4.4111606E2,5.518319E1,2.3352182E1,2.2627232E1,5.234379E2,3.71659E1,1.5247119E2,1.2362736E2,1.9052606E2,3.8226984E2,4.5696143E2,1.290771E2,4.095546E2,2.3389186E2,2.8220514E2,5.5689823E1,1.2234354E1,1.0617025E2,1.895308E2,6.956434E2,5.965075E2,4.8781702E2,6.691693E2],"tree_param":{"num_deleted":"0","num_feature":"9","num_nodes":"63","size_leaf_vector":"1"}},{"base_weights":[2.8437253E-3,8.729272E-1,-7.6243204E-1,1.2488524E0,-4.156158E-2,1.7766705E-1,-1.1193829E0,1.475157E0,9.7519386E-1,5.2398664E-1,-3.8960063E-1,5.50314E-1,-4.3690225E-1,-7.100154E-1,-1.3023193E0,1.5510508E0,1.3409834E0,1.2033684E0,6.918453E-1,7.54079E-1,-1.6244808E-1,-1.06714904E-1,-7.3464733E-1,8.6224765E-1,2.0362276E-1,2.3664582E-1,-7.642808E-1,-2.423588E-1,-9.7937816E-1,-9.630322E-1,-1.3616434E0,7.91614E-2,7.332759E-2,7.464269E-2,5.771895E-2,7.3342435E-2,5.7018366E-2,4.35364E-2,2.485897E-2,5.2112788E-2,2.0185327E-2,7.245563E-3,-4.0368717E-2,9.378699E-3,-2.1376735E-2,-2.9590247E-2,-5.2061524E-2,5.2578785E-2,2.8142845E-2,3.112255E-2,-6.8991347E-3,1.8575424E-2,-4.8787046E-2,-2.707961E-2,-5.1648792E-2,-5.62947E-4,-2.000766E-2,-3.642958E-2,-5.5302013E-2,-3.936247E-2,-6.0097545E-2,-6.2129136E-2,-7.153809E-2],"categories":[],"categories_nodes":[],"categories_segments":[],"categories_sizes":[],"default_left":[0,0,0,0,0,0,0,0,0,0,0,0,0,0,0,0,0,0,0,0,0,0,0,0,0,0,0,0,0,0,0,0,0,0,0,0,0,0,0,0,0,0,0,0,0,0,0,0,0,0,0,0,0,0,0,0,0,0,0,0,0,0,0],"id":6,"left_children":[1,3,5,7,9,11,13,15,17,19,21,23,25,27,29,31,33,35,37,39,41,43,45,47,49,51,53,55,57,59,61,-1,-1,-1,-1,-1,-1,-1,-1,-1,-1,-1,-1,-1,-1,-1,-1,-1,-1,-1,-1,-1,-1,-1,-1,-1,-1,-1,-1,-1,-1,-1,-1],"loss_changes":[5.9011772E3,1.4258044E3,1.582502E3,1.8058252E2,2.3820695E2,2.9762378E2,2.5502588E2,1.4281738E1,8.537073E1,7.294502E1,7.303983E1,8.729248E1,1.08385506E2,1.3301227E2,4.620996E1,4.5117188E-1,1.49375E1,1.0564697E1,2.0359833E1,3.44635E1,2.3224539E1,3.9053688E1,1.4155182E1,2.3523102E1,5.5079338E1,2.6730011E1,1.9213074E1,1.4141748E1,2.0504333E1,1.3954193E1,1.4739746E1,0E0,0E0,0E0,0E0,0E0,0E0,0E0,0E0,0E0,0E0,0E0,0E0,0E0,0E0,0E0,0E0,0E0,0E0,0E0,0E0,0E0,0E0,0E0,0E0,0E0,0E0,0E0,0E0,0E0,0E0,0E0,0E0],"parents":[2147483647,0,0,1,1,2,2,3,3,4,4,5,5,6,6,7,7,8,8,9,9,10,10,11,11,12,12,13,13,14,14,15,15,16,16,17,17,18,18,19,19,20,20,21,21,22,22,23,23,24,24,25,25,26,26,27,27,28,28,29,29,30,30],"right_children":[2,4,6,8,10,12,14,16,18,20,22,24,26,28,30,32,34,36,38,40,42,44,46,48,50,52,54,56,58,60,62,-1,-1,-1,-1,-1,-1,-1,-1,-1,-1,-1,-1,-1,-1,-1,-1,-1,-1,-1,-1,-1,-1,-1,-1,-1,-1,-1,-1,-1,-1,-1,-1],"split_conditions":[-7.023664E-2,1.0371215E-1,-2.0595783E-1,-5.037363E-1,-5.037363E-1,4.644619E-1,1.9805297E-1,-8.1225824E-1,-2.791402E-1,1.0737143E0,4.902854E-1,-5.1818013E-1,-9.090744E-1,1.172505E-1,2.4796583E-2,-5.3796047E-1,-2.74599E-1,-1.3809754E0,-2.3890617E-1,-7.577704E-1,9.7107065E-1,-2.2561374E-1,1.0737143E0,-6.020135E-1,1.0515333E-1,2.5814972E0,-4.3229452E-1,8.718639E-2,3.2186225E-1,5.868832E-1,5.2565706E-1,7.91614E-2,7.332759E-2,7.464269E-2,5.771895E-2,7.3342435E-2,5.7018366E-2,4.35364E-2,2.485897E-2,5.2112788E-2,2.0185327E-2,7.245563E-3,-4.0368717E-2,9.378699E-3,-2.1376735E-2,-2.9590247E-2,-5.2061524E-2,5.2578785E-2,2.8142845E-2,3.112255E-2,-6.8991347E-3,1.8575424E-2,-4.8787046E-2,-2.707961E-2,-5.1648792E-2,-5.62947E-4,-2.000766E-2,-3.642958E-2,-5.5302013E-2,-3.936247E-2,-6.0097545E-2,-6.2129136E-2,-7.153809E-2],"split_indices":[6,8,8,6,6,6,6,6,8,8,8,8,8,8,8,8,5,2,6,6,2,6,8,2,6,6,8,2,8,6,6,0,0,0,0,0,0,0,0,0,0,0,0,0,0,0,0,0,0,0,0,0,0,0,0,0,0,0,0,0,0,0,0],"split_type":[0,0,0,0,0,0,0,0,0,0,0,0,0,0,0,0,0,0,0,0,0,0,0,0,0,0,0,0,0,0,0,0,0,0,0,0,0,0,0,0,0,0,0,0,0,0,0,0,0,0,0,0,0,0,0,0,0,0,0,0,0,0,0],"sum_hessian":[8.860572E3,4.1462896E3,4.714282E3,2.9381277E3,1.208162E3,1.2975187E3,3.4167637E3,1.6058027E3,1.332325E3,4.600673E2,7.480947E2,8.0780615E2,4.8971246E2,1.0567943E3,2.3599692E3,1.0189093E3,5.868935E2,7.3621765E2,5.961073E2,3.4449448E2,1.1557281E2,4.1179492E2,3.362998E2,4.244355E2,3.8337067E2,1.6026358E2,3.2944888E2,3.869271E2,6.698672E2,3.5379187E2,2.0061774E3,7.250676E2,2.938417E2,3.1970074E2,2.6719272E2,1.3776804E2,5.984496E2,3.0883722E2,2.8727005E2,1.8794087E2,1.565536E2,7.879564E1,3.6777164E1,2.1499487E2,1.9680005E2,2.3141148E2,1.04888336E2,2.5847153E2,1.6596397E2,1.7185019E2,2.115205E2,1.4484499E2,1.5418595E1,1.8179594E2,1.4765292E2,1.5743092E2,2.2949617E2,2.27056E2,4.428112E2,2.0630183E2,1.4749005E2,7.438417E2,1.2623357E3],"tree_param":{"num_deleted":"0","num_feature":"9","num_nodes":"63","size_leaf_vector":"1"}},{"base_weights":[7.130901E-3,8.3972025E-1,-7.322465E-1,1.2033172E0,-3.0330517E-3,7.802694E-2,-1.102765E0,1.3584743E0,8.027578E-1,5.3137773E-1,-2.9742536E-1,4.272967E-1,-4.9214363E-1,-6.847947E-1,-1.2577428E0,1.458681E0,1.1452636E0,1.049658E0,4.847869E-1,7.9777557E-1,-1.0663285E-1,6.2798284E-2,-5.974502E-1,7.308154E-1,4.4315014E-2,2.5162086E-1,-7.4529916E-1,-2.1901521E-1,-8.9611286E-1,-9.6353215E-1,-1.3214909E0,7.649981E-2,6.899918E-2,7.07817E-2,5.1386453E-2,-1.7843556E-2,5.360029E-2,1.4670305E-2,3.0971428E-2,5.4698445E-2,2.97151E-2,2.9792402E-2,-1.8158415E-2,1.1262299E-2,-9.536994E-3,-2.0140579E-2,-4.2380206E-2,5.75457E-2,3.0064955E-2,1.8056551E-2,-9.641495E-3,2.4714144E-2,-1.3469395E-2,-2.6284521E-2,-5.7107236E-2,-1.5523178E-2,1.5000194E-2,-3.2731395E-2,-5.183303E-2,-3.0753339E-2,-5.670753E-2,-6.297871E-2,-7.130275E-2],"categories":[],"categories_nodes":[],"categories_segments":[],"categories_sizes":[],"default_left":[0,0,0,0,0,0,0,0,0,0,0,0,0,0,0,0,0,0,0,0,0,0,0,0,0,0,0,0,0,0,0,0,0,0,0,0,0,0,0,0,0,0,0,0,0,0,0,0,0,0,0,0,0,0,0,0,0,0,0,0,0,0,0],"id":7,"left_children":[1,3,5,7,9,11,13,15,17,19,21,23,25,27,29,31,33,35,37,39,41,43,45,47,49,51,53,55,57,59,61,-1,-1,-1,-1,-1,-1,-1,-1,-1,-1,-1,-1,-1,-1,-1,-1,-1,-1,-1,-1,-1,-1,-1,-1,-1,-1,-1,-1,-1,-1,-1,-1],"loss_changes":[5.421568E3,1.2693235E3,1.4005024E3,1.7876172E2,1.9674089E2,2.918825E2,2.0648584E2,4.2863525E1,6.3114563E1,7.558187E1,8.7182556E1,1.05608E2,1.050336E2,8.524237E1,4.2500977E1,5.826416E0,1.9871155E1,1.4694946E1,8.993759E0,1.8241959E1,2.3953959E1,1.5171297E1,2.1082947E1,2.6889862E1,3.0337452E1,1.8105026E1,3.5627182E1,1.3014202E1,1.9576935E1,2.423407E1,1.0605957E1,0E0,0E0,0E0,0E0,0E0,0E0,0E0,0E0,0E0,0E0,0E0,0E0,0E0,0E0,0E0,0E0,0E0,0E0,0E0,0E0,0E0,0E0,0E0,0E0,0E0,0E0,0E0,0E0,0E0,0E0,0E0,0E0],"parents":[2147483647,0,0,1,1,2,2,3,3,4,4,5,5,6,6,7,7,8,8,9,9,10,10,11,11,12,12,13,13,14,14,15,15,16,16,17,17,18,18,19,19,20,20,21,21,22,22,23,23,24,24,25,25,26,26,27,27,28,28,29,29,30,30],"right_children":[2,4,6,8,10,12,14,16,18,20,22,24,26,28,30,32,34,36,38,40,42,44,46,48,50,52,54,56,58,60,62,-1,-1,-1,-1,-1,-1,-1,-1,-1,-1,-1,-1,-1,-1,-1,-1,-1,-1,-1,-1,-1,-1,-1,-1,-1,-1,-1,-1,-1,-1,-1,-1],"split_conditions":[-7.023664E-2,9.0138376E-2,-1.3736387E-1,-3.1766888E-1,-5.3512317E-1,4.5481402E-1,1.6581996E-1,-3.8833246E-1,-2.5051066E-1,1.0000155E0,3.8228342E-1,-4.2209968E-1,-9.838804E-1,1.104746E-1,1.0371215E-1,-8.873029E-1,-8.1225824E-1,-5.475692E-1,-9.64883E-2,-9.2611104E-1,-1.3818475E0,-2.0147638E-1,-2.2561374E-1,-1.0778122E0,9.167951E-2,1.3608121E0,9.600105E-1,4.9236536E-1,3.404625E-1,3.6498907E-1,8.698076E-1,7.649981E-2,6.899918E-2,7.07817E-2,5.1386453E-2,-1.7843556E-2,5.360029E-2,1.4670305E-2,3.0971428E-2,5.4698445E-2,2.97151E-2,2.9792402E-2,-1.8158415E-2,1.1262299E-2,-9.536994E-3,-2.0140579E-2,-4.2380206E-2,5.75457E-2,3.0064955E-2,1.8056551E-2,-9.641495E-3,2.4714144E-2,-1.3469395E-2,-2.6284521E-2,-5.7107236E-2,-1.5523178E-2,1.5000194E-2,-3.2731395E-2,-5.183303E-2,-3.0753339E-2,-5.670753E-2,-6.297871E-2,-7.130275E-2],"split_indices":[7,8,8,7,7,7,7,8,8,8,8,8,8,8,8,7,7,4,3,7,7,7,7,8,7,7,7,4,8,7,7,0,0,0,0,0,0,0,0,0,0,0,0,0,0,0,0,0,0,0,0,0,0,0,0,0,0,0,0,0,0,0,0],"split_type":[0,0,0,0,0,0,0,0,0,0,0,0,0,0,0,0,0,0,0,0,0,0,0,0,0,0,0,0,0,0,0,0,0,0,0,0,0,0,0,0,0,0,0,0,0,0,0,0,0,0,0,0,0,0,0,0,0,0,0,0,0,0,0],"sum_hessian":[8.804999E3,4.1413833E3,4.663615E3,2.8928613E3,1.2485221E3,1.4636345E3,3.199981E3,2.083445E3,8.0941614E2,4.431913E2,8.053308E2,9.0779596E2,5.558386E2,8.670348E2,2.332946E3,1.413346E3,6.7009924E2,4.5433215E2,3.5508395E2,3.1247055E2,1.3072078E2,3.6631128E2,4.3901953E2,5.0593036E2,4.018656E2,1.4114989E2,4.1468872E2,2.7123193E2,5.9580286E2,4.1833948E2,1.9146066E3,7.317744E2,6.8157153E2,1.9969252E2,4.7040674E2,6.8716965E0,4.4746048E2,1.4795648E2,2.0712747E2,1.25461586E2,1.8700896E2,3.46138E1,9.610697E1,2.2333014E2,1.4298114E2,2.4837518E2,1.9064435E2,1.1736373E2,3.8856662E2,1.7181068E2,2.3005493E2,9.633347E1,4.4816418E1,2.6845444E2,1.4623427E2,2.3094289E2,4.028905E1,2.2127402E2,3.7452884E2,1.390182E2,2.7932126E2,1.2107302E3,7.0387634E2],"tree_param":{"num_deleted":"0","num_feature":"9","num_nodes":"63","size_leaf_vector":"1"}},{"base_weights":[1.5616372E-3,8.9477843E-1,-6.292058E-1,1.1944383E0,4.336984E-2,2.5366167E-2,-1.0965164E0,1.3303106E0,8.598057E-1,6.4357495E-1,-1.7867726E-1,4.8164797E-1,-3.79409E-1,-7.3551816E-1,-1.2611207E0,1.4609504E0,1.1892571E0,1.1654092E0,6.3805604E-1,8.092883E-1,-7.4279445E-1,1.8118317E-1,-4.613591E-1,8.390785E-1,1.6167042E-1,1.8756185E-1,-6.770196E-1,-4.5575872E-1,-9.944847E-1,-1.1449428E0,-1.338597E0,5.2847505E-2,7.3361896E-2,6.553044E-2,5.274293E-2,7.0389576E-2,5.218035E-2,4.1776367E-2,2.1212857E-2,5.3587545E-2,1.934854E-2,1.3716901E-2,-5.6632537E-2,2.2214953E-2,-3.7118953E-3,-1.3631172E-2,-3.543715E-2,5.030117E-2,2.8741911E-2,1.4292565E-2,-1.0531515E-2,2.2938004E-2,-1.7579665E-2,-1.9275015E-2,-4.5861583E-2,-1.1236931E-2,-3.2095157E-2,-3.1811636E-2,-5.2999437E-2,-5.0761737E-2,-6.4589426E-2,-4.8772108E-2,-6.7539565E-2],"categories":[],"categories_nodes":[],"categories_segments":[],"categories_sizes":[],"default_left":[0,0,0,0,0,0,0,0,0,0,0,0,0,0,0,0,0,0,0,0,0,0,0,0,0,0,0,0,0,0,0,0,0,0,0,0,0,0,0,0,0,0,0,0,0,0,0,0,0,0,0,0,0,0,0,0,0,0,0,0,0,0,0],"id":8,"left_children":[1,3,5,7,9,11,13,15,17,19,21,23,25,27,29,31,33,35,37,39,41,43,45,47,49,51,53,55,57,59,61,-1,-1,-1,-1,-1,-1,-1,-1,-1,-1,-1,-1,-1,-1,-1,-1,-1,-1,-1,-1,-1,-1,-1,-1,-1,-1,-1,-1,-1,-1,-1,-1],"loss_changes":[4.9086904E3,9.199636E2,1.5620203E3,1.2012744E2,1.2536573E2,3.932082E2,1.7611426E2,3.318506E1,5.164514E1,5.895691E1,6.994823E1,1.14325485E2,1.904974E2,6.7319885E1,1.687378E1,9.3725586E-1,1.3567261E1,8.092041E0,1.8652786E1,2.478714E1,1.12715435E1,2.0387283E1,1.7778976E1,2.0265106E1,2.4531357E1,5.706077E1,5.1470825E1,1.9272797E1,1.0705627E1,1.4403076E1,4.0893555E0,0E0,0E0,0E0,0E0,0E0,0E0,0E0,0E0,0E0,0E0,0E0,0E0,0E0,0E0,0E0,0E0,0E0,0E0,0E0,0E0,0E0,0E0,0E0,0E0,0E0,0E0,0E0,0E0,0E0,0E0,0E0,0E0],"parents":[2147483647,0,0,1,1,2,2,3,3,4,4,5,5,6,6,7,7,8,8,9,9,10,10,11,11,12,12,13,13,14,14,15,15,16,16,17,17,18,18,19,19,20,20,21,21,22,22,23,23,24,24,25,25,26,26,27,27,28,28,29,29,30,30],"right_children":[2,4,6,8,10,12,14,16,18,20,22,24,26,28,30,32,34,36,38,40,42,44,46,48,50,52,54,56,58,60,62,-1,-1,-1,-1,-1,-1,-1,-1,-1,-1,-1,-1,-1,-1,-1,-1,-1,-1,-1,-1,-1,-1,-1,-1,-1,-1,-1,-1,-1,-1,-1,-1],"split_conditions":[-1.572058E-1,1.4329016E-1,1.7490275E-2,-2.5051066E-1,-7.577704E-1,1.9805297E-1,1.6581996E-1,-6.9810224E-1,-5.037363E-1,2.232545E0,4.3993953E-1,-3.6215022E-1,-6.0384876E-1,3.4963265E-1,5.2565706E-1,-3.534287E0,-3.092421E-1,-4.3669063E-1,-5.7251815E-2,7.693773E-1,7.627674E-2,-3.4905288E-1,-3.4041703E-1,-4.8246953E-1,9.167951E-2,8.913148E-1,4.644619E-1,-2.1029519E-2,-7.203299E-2,7.6683354E-1,-8.161119E-1,5.2847505E-2,7.3361896E-2,6.553044E-2,5.274293E-2,7.0389576E-2,5.218035E-2,4.1776367E-2,2.1212857E-2,5.3587545E-2,1.934854E-2,1.3716901E-2,-5.6632537E-2,2.2214953E-2,-3.7118953E-3,-1.3631172E-2,-3.543715E-2,5.030117E-2,2.8741911E-2,1.4292565E-2,-1.0531515E-2,2.2938004E-2,-1.7579665E-2,-1.9275015E-2,-4.5861583E-2,-1.1236931E-2,-3.2095157E-2,-3.1811636E-2,-5.2999437E-2,-5.0761737E-2,-6.4589426E-2,-4.8772108E-2,-6.7539565E-2],"split_indices":[7,8,8,8,7,7,7,7,7,8,8,8,8,8,7,3,5,5,8,8,2,7,7,2,7,7,7,7,2,2,2,0,0,0,0,0,0,0,0,0,0,0,0,0,0,0,0,0,0,0,0,0,0,0,0,0,0,0,0,0,0,0,0],"split_type":[0,0,0,0,0,0,0,0,0,0,0,0,0,0,0,0,0,0,0,0,0,0,0,0,0,0,0,0,0,0,0,0,0,0,0,0,0,0,0,0,0,0,0,0,0,0,0,0,0,0,0,0,0,0,0,0,0,0,0,0,0,0,0],"sum_hessian":[8.710435E3,3.605021E3,5.105414E3,2.6662207E3,9.388002E2,2.12701E3,2.978404E3,1.8941543E3,7.7206647E2,2.5300792E2,6.8579224E2,9.997991E2,1.127211E3,9.344676E2,2.0439364E3,9.785194E2,9.156348E2,3.228611E2,4.4920535E2,2.2636649E2,2.6641441E1,3.018673E2,3.839249E2,4.7149448E2,5.283046E2,3.8814157E2,7.3906946E2,4.5052692E2,4.8394064E2,8.24041E2,1.2198954E3,1.758705E1,9.609324E2,4.7657364E2,4.3906122E2,1.0445031E2,2.184108E2,2.3200783E2,2.1719753E2,1.3865634E2,8.7710144E1,7.464062E0,1.9177378E1,1.4832964E2,1.5353767E2,2.189694E2,1.649555E2,2.8722238E2,1.842721E2,3.9633823E2,1.3196638E2,2.5834277E2,1.2979881E2,3.3505475E2,4.040147E2,2.020161E2,2.4851082E2,7.646336E1,4.074773E2,4.4175485E2,3.822862E2,4.2263023E1,1.1776323E3],"tree_param":{"num_deleted":"0","num_feature":"9","num_nodes":"63","size_leaf_vector":"1"}},{"base_weights":[2.1837086E-3,7.7968055E-1,-6.962057E-1,1.1863003E0,1.2947619E-1,4.1637518E-2,-1.0425146E0,1.326525E0,8.904332E-1,4.5445928E-1,-2.6132175E-1,4.5545626E-1,-3.2844624E-1,-6.545416E-1,-1.1899744E0,1.4187073E0,1.2119371E0,1.1027687E0,7.4695367E-1,7.930409E-1,5.5060785E-2,5.154767E-2,-6.964951E-1,7.091979E-1,5.758614E-2,1.721688E-2,-7.3914886E-1,-3.8613677E-1,-1.0028766E0,-9.103608E-1,-1.249566E0,7.166428E-2,5.8610994E-2,6.680288E-2,5.4887313E-2,6.0726482E-2,4.5156736E-2,4.292735E-2,2.3889972E-2,5.0751086E-2,2.4438506E-2,2.5414778E-2,-1.0463654E-2,1.44299315E-2,-5.8237663E-3,-2.8275747E-2,-5.1156756E-2,4.3994945E-2,2.4595747E-2,2.1280486E-2,-8.469111E-3,1.7386368E-2,-1.3594004E-2,-3.0531589E-2,-5.6569304E-2,-9.787669E-3,-2.9567605E-2,-4.3657325E-2,-5.7039868E-2,-3.737086E-2,-5.8024716E-2,-5.729681E-2,-6.60597E-2],"categories":[],"categories_nodes":[],"categories_segments":[],"categories_sizes":[],"default_left":[0,0,0,0,0,0,0,0,0,0,0,0,0,0,0,0,0,0,0,0,0,0,0,0,0,0,0,0,0,0,0,0,0,0,0,0,0,0,0,0,0,0,0,0,0,0,0,0,0,0,0,0,0,0,0,0,0,0,0,0,0,0,0],"id":9,"left_children":[1,3,5,7,9,11,13,15,17,19,21,23,25,27,29,31,33,35,37,39,41,43,45,47,49,51,53,55,57,59,61,-1,-1,-1,-1,-1,-1,-1,-1,-1,-1,-1,-1,-1,-1,-1,-1,-1,-1,-1,-1,-1,-1,-1,-1,-1,-1,-1,-1,-1,-1,-1,-1],"loss_changes":[4.6721104E3,1.076311E3,1.1582617E3,1.0274121E2,1.9921875E2,2.2203801E2,1.757102E2,1.620996E1,2.3807373E1,1.1575012E2,9.7031364E1,6.905652E1,1.0867603E2,7.925308E1,3.608789E1,1.6790771E0,9.356079E0,6.130066E0,1.4174194E1,3.0799438E1,4.7301426E1,1.657786E1,1.2172226E1,1.506427E1,2.2425411E1,3.9900375E1,1.6943558E1,1.8744377E1,5.625641E0,1.527948E1,1.2135986E1,0E0,0E0,0E0,0E0,0E0,0E0,0E0,0E0,0E0,0E0,0E0,0E0,0E0,0E0,0E0,0E0,0E0,0E0,0E0,0E0,0E0,0E0,0E0,0E0,0E0,0E0,0E0,0E0,0E0,0E0,0E0,0E0],"parents":[2147483647,0,0,1,1,2,2,3,3,4,4,5,5,6,6,7,7,8,8,9,9,10,10,11,11,12,12,13,13,14,14,15,15,16,16,17,17,18,18,19,19,20,20,21,21,22,22,23,23,24,24,25,25,26,26,27,27,28,28,29,29,30,30],"right_children":[2,4,6,8,10,12,14,16,18,20,22,24,26,28,30,32,34,36,38,40,42,44,46,48,50,52,54,56,58,60,62,-1,-1,-1,-1,-1,-1,-1,-1,-1,-1,-1,-1,-1,-1,-1,-1,-1,-1,-1,-1,-1,-1,-1,-1,-1,-1,-1,-1,-1,-1,-1,-1],"split_conditions":[-7.023664E-2,-5.7251815E-2,-1.3046952E-1,-3.7257534E-1,-3.4041703E-1,2.8070095E-1,1.6581996E-1,-7.943006E-1,-4.9795997E-1,4.3993953E-1,3.8228342E-1,-3.6215022E-1,-4.8892316E-1,3.404625E-1,1.0371215E-1,-1.9193007E-1,-3.4675595E-1,-6.127745E-1,-2.74599E-1,-5.470114E-1,-8.483621E-1,1.0371215E-1,1.0239502E0,-6.020135E-1,4.1787844E-2,6.4498717E-1,9.600105E-1,4.9401215E-1,8.862827E-1,5.868832E-1,5.51393E-1,7.166428E-2,5.8610994E-2,6.680288E-2,5.4887313E-2,6.0726482E-2,4.5156736E-2,4.292735E-2,2.3889972E-2,5.0751086E-2,2.4438506E-2,2.5414778E-2,-1.0463654E-2,1.44299315E-2,-5.8237663E-3,-2.8275747E-2,-5.1156756E-2,4.3994945E-2,2.4595747E-2,2.1280486E-2,-8.469111E-3,1.7386368E-2,-1.3594004E-2,-3.0531589E-2,-5.6569304E-2,-9.787669E-3,-2.9567605E-2,-4.3657325E-2,-5.7039868E-2,-3.737086E-2,-5.8024716E-2,-5.729681E-2,-6.60597E-2],"split_indices":[6,8,8,6,6,6,6,6,8,8,8,8,8,8,8,8,5,2,5,6,6,8,8,2,6,6,6,2,2,6,6,0,0,0,0,0,0,0,0,0,0,0,0,0,0,0,0,0,0,0,0,0,0,0,0,0,0,0,0,0,0,0,0],"split_type":[0,0,0,0,0,0,0,0,0,0,0,0,0,0,0,0,0,0,0,0,0,0,0,0,0,0,0,0,0,0,0,0,0,0,0,0,0,0,0,0,0,0,0,0,0,0,0,0,0,0,0,0,0,0,0,0,0,0,0,0,0,0,0],"sum_hessian":[8.602325E3,4.0705652E3,4.53176E3,2.5038823E3,1.5666829E3,1.4478535E3,3.0839062E3,1.6963994E3,8.0748285E2,8.5527936E2,7.1140344E2,6.83429E2,7.6442456E2,8.508154E2,2.2330908E3,9.338033E2,7.625962E2,3.229148E2,4.8456805E2,4.6234805E2,3.9293134E2,4.143713E2,2.9703217E2,4.168198E2,2.6660922E2,4.1559872E2,3.488258E2,4.8173193E2,3.690835E2,3.9516806E2,1.8379227E3,8.771119E2,5.669136E1,3.6028357E2,4.0231262E2,2.0376016E2,1.1915464E2,3.4099805E2,1.4357E2,2.6597214E2,1.963759E2,1.4440584E2,2.485255E2,1.7158183E2,2.4278947E2,2.1396509E2,8.306707E1,2.31724E2,1.8509578E2,1.01368126E2,1.6524109E2,1.9381578E2,2.2178294E2,2.646648E2,8.416101E1,2.5091019E2,2.3082175E2,1.9396657E2,1.7511693E2,2.4170384E2,1.5346423E2,7.581083E2,1.0798145E3],"tree_param":{"num_deleted":"0","num_feature":"9","num_nodes":"63","size_leaf_vector":"1"}},{"base_weights":[9.346093E-3,8.3540106E-1,-5.9766746E-1,1.1686844E0,1.8740864E-1,3.534303E-2,-1.021501E0,1.280912E0,8.692923E-1,4.5557225E-1,-1.6297445E-1,4.5050356E-1,-3.4002152E-1,-6.6644293E-1,-1.185386E0,1.3824282E0,1.1681429E0,1.1045266E0,7.27181E-1,9.183203E-1,1.6223282E-1,4.138027E-1,-3.926971E-1,7.6188093E-1,1.3554627E-1,1.4933762E-1,-6.267096E-1,-3.8506994E-1,-9.29568E-1,-1.0057006E0,-1.2483363E0,7.260858E-2,6.7032866E-2,6.6309035E-2,5.3109366E-2,5.880729E-2,3.955665E-2,3.706803E-2,-7.2359346E-2,6.254228E-2,3.7340354E-2,-1.3728568E-2,1.2800035E-2,3.2455612E-2,-3.2203402E-2,-1.1225916E-2,-3.6730688E-2,5.9607726E-2,3.3073228E-2,1.8063223E-2,-7.7455775E-3,2.5653591E-2,-8.368115E-3,-2.2809153E-2,-4.6702806E-2,-1.11297E-2,-3.1074444E-2,-3.9001692E-2,-5.4484915E-2,-3.8970895E-2,-5.592789E-2,-4.8704546E-2,-6.366988E-2],"categories":[],"categories_nodes":[],"categories_segments":[],"categories_sizes":[],"default_left":[0,0,0,0,0,0,0,0,0,0,0,0,0,0,0,0,0,0,0,0,0,0,0,0,0,0,0,0,0,0,0,0,0,0,0,0,0,0,0,0,0,0,0,0,0,0,0,0,0,0,0,0,0,0,0,0,0,0,0,0,0,0,0],"id":10,"left_children":[1,3,5,7,9,11,13,15,17,19,21,23,25,27,29,31,33,35,37,39,41,43,45,47,49,51,53,55,57,59,61,-1,-1,-1,-1,-1,-1,-1,-1,-1,-1,-1,-1,-1,-1,-1,-1,-1,-1,-1,-1,-1,-1,-1,-1,-1,-1,-1,-1,-1,-1,-1,-1],"loss_changes":[4.255857E3,7.7619604E2,1.3126246E3,7.864819E1,1.1491586E2,3.0606058E2,1.6972632E2,1.8127197E1,2.0937317E1,9.386824E1,7.046955E1,9.1349625E1,1.4480353E2,6.832715E1,2.1408936E1,6.812744E-1,1.2379639E1,4.5235596E0,1.3662827E1,1.4379059E1,1.7482275E1,3.8162724E1,2.1685947E1,1.9462738E1,3.0529789E1,4.407385E1,3.3673523E1,1.7148102E1,1.0612427E1,1.2535095E1,8.929199E0,0E0,0E0,0E0,0E0,0E0,0E0,0E0,0E0,0E0,0E0,0E0,0E0,0E0,0E0,0E0,0E0,0E0,0E0,0E0,0E0,0E0,0E0,0E0,0E0,0E0,0E0,0E0,0E0,0E0,0E0,0E0,0E0],"parents":[2147483647,0,0,1,1,2,2,3,3,4,4,5,5,6,6,7,7,8,8,9,9,10,10,11,11,12,12,13,13,14,14,15,15,16,16,17,17,18,18,19,19,20,20,21,21,22,22,23,23,24,24,25,25,26,26,27,27,28,28,29,29,30,30],"right_children":[2,4,6,8,10,12,14,16,18,20,22,24,26,28,30,32,34,36,38,40,42,44,46,48,50,52,54,56,58,60,62,-1,-1,-1,-1,-1,-1,-1,-1,-1,-1,-1,-1,-1,-1,-1,-1,-1,-1,-1,-1,-1,-1,-1,-1,-1,-1,-1,-1,-1,-1,-1,-1],"split_conditions":[-1.442701E-1,-2.4131238E-3,-1.568587E-2,-3.7257534E-1,4.7014278E-1,2.1319005E-1,1.6581996E-1,-8.1225824E-1,-4.9795997E-1,-5.037363E-1,-7.943006E-1,-3.443042E-1,-6.0384876E-1,3.2186225E-1,2.8154534E-1,-2.9644257E-1,-4.0757728E-1,6.1025655E-1,4.6805153E0,-9.6731293E-1,-1.3280661E-1,2.087352E0,1.0737143E0,-1.4026616E0,4.1787844E-2,5.971105E-1,6.588398E-1,7.297541E-1,8.731875E-1,3.6498907E-1,-4.00778E-1,7.260858E-2,6.7032866E-2,6.6309035E-2,5.3109366E-2,5.880729E-2,3.955665E-2,3.706803E-2,-7.2359346E-2,6.254228E-2,3.7340354E-2,-1.3728568E-2,1.2800035E-2,3.2455612E-2,-3.2203402E-2,-1.1225916E-2,-3.6730688E-2,5.9607726E-2,3.3073228E-2,1.8063223E-2,-7.7455775E-3,2.5653591E-2,-8.368115E-3,-2.2809153E-2,-4.6702806E-2,-1.11297E-2,-3.1074444E-2,-3.9001692E-2,-5.4484915E-2,-3.8970895E-2,-5.592789E-2,-4.8704546E-2,-6.366988E-2],"split_indices":[6,8,8,6,8,6,6,6,8,6,6,8,8,8,8,5,5,5,3,6,3,8,8,2,6,6,6,2,2,6,2,0,0,0,0,0,0,0,0,0,0,0,0,0,0,0,0,0,0,0,0,0,0,0,0,0,0,0,0,0,0,0,0],"split_type":[0,0,0,0,0,0,0,0,0,0,0,0,0,0,0,0,0,0,0,0,0,0,0,0,0,0,0,0,0,0,0,0,0,0,0,0,0,0,0,0,0,0,0,0,0,0,0,0,0,0,0,0,0,0,0,0,0,0,0,0,0,0,0],"sum_hessian":[8.485502E3,3.5940962E3,4.891406E3,2.3728567E3,1.2212397E3,1.9620018E3,2.9294038E3,1.7235153E3,6.493413E2,6.9161566E2,5.296241E2,9.315211E2,1.0304807E3,9.267219E2,2.0026819E3,9.0108685E2,8.224284E2,2.4199643E2,4.073449E2,2.6749966E2,4.2411597E2,1.5062938E2,3.789947E2,4.6770914E2,4.6381198E2,3.8085806E2,6.496227E2,4.4902264E2,4.7769928E2,5.2398773E2,1.4786941E3,3.2488025E2,5.762066E2,3.2546518E2,4.969632E2,1.9474005E2,4.725638E1,4.053605E2,1.9844072E0,8.888287E1,1.7861679E2,7.4613144E1,3.495028E2,1.2353667E2,2.7092714E1,2.5515039E2,1.23844315E2,8.644209E1,3.8126703E2,2.6085483E2,2.0295715E2,1.7697723E2,2.0388084E2,4.1940594E2,2.3021669E2,2.672796E2,1.8174303E2,2.5005869E2,2.276406E2,1.7700098E2,3.4698676E2,1.2715128E2,1.3515428E3],"tree_param":{"num_deleted":"0","num_feature":"9","num_nodes":"63","size_leaf_vector":"1"}},{"base_weights":[1.4974291E-3,6.74516E-1,-6.842157E-1,1.0079798E0,3.116745E-1,-8.396161E-2,-8.614071E-1,1.1023093E0,2.856645E-1,7.2082114E-1,6.7569196E-2,2.4661455E-1,-5.683615E-1,-5.1709545E-1,-1.0789711E0,1.2769392E0,9.4334745E-1,4.4231957E-1,-3.4950536E-1,5.5741686E-1,1.2050034E0,-7.760073E-1,1.4355826E-1,1.0717868E-1,1.0459203E0,2.759083E-1,-7.1704805E-1,-2.9861814E-1,-9.531278E-1,-9.2633426E-1,-1.2191702E0,6.785804E-2,5.835252E-2,3.6405127E-2,5.4800805E-2,3.340767E-2,1.6590377E-2,-4.8382152E-2,-9.40513E-3,4.5702584E-2,-5.93563E-4,5.1036675E-2,7.145306E-2,-2.2405876E-2,-5.71102E-2,1.944237E-2,-9.719293E-3,2.7746264E-2,-7.0853992E-3,2.5220085E-2,5.6779422E-2,2.1761214E-2,-8.112316E-3,-4.009008E-2,4.5121968E-2,-4.428158E-2,-6.479346E-3,-3.226025E-2,-5.7017483E-2,-6.297114E-2,-3.304169E-2,-5.6734353E-2,-6.4105764E-2],"categories":[],"categories_nodes":[],"categories_segments":[],"categories_sizes":[],"default_left":[0,0,0,0,0,0,0,0,0,0,0,0,0,0,0,0,0,0,0,0,0,0,0,0,0,0,0,0,0,0,0,0,0,0,0,0,0,0,0,0,0,0,0,0,0,0,0,0,0,0,0,0,0,0,0,0,0,0,0,0,0,0,0],"id":11,"left_children":[1,3,5,7,9,11,13,15,17,19,21,23,25,27,29,31,33,35,37,39,41,43,45,47,49,51,53,55,57,59,61,-1,-1,-1,-1,-1,-1,-1,-1,-1,-1,-1,-1,-1,-1,-1,-1,-1,-1,-1,-1,-1,-1,-1,-1,-1,-1,-1,-1,-1,-1,-1,-1],"loss_changes":[3.8480325E3,5.08833E2,4.3920654E2,1.4906128E2,2.0136772E2,1.510515E2,2.3830688E2,5.2614258E1,2.5486273E1,5.894226E1,8.114996E1,6.2395557E1,4.8223076E1,1.1751941E2,4.0665527E1,6.5352783E0,3.267865E1,4.886017E0,4.898773E0,1.1476659E2,6.3554993E0,1.2050632E1,9.628043E1,5.341933E1,3.4667358E0,4.1199627E0,4.5409836E1,8.177311E1,2.3035034E1,8.222821E1,3.9421387E0,0E0,0E0,0E0,0E0,0E0,0E0,0E0,0E0,0E0,0E0,0E0,0E0,0E0,0E0,0E0,0E0,0E0,0E0,0E0,0E0,0E0,0E0,0E0,0E0,0E0,0E0,0E0,0E0,0E0,0E0,0E0,0E0],"parents":[2147483647,0,0,1,1,2,2,3,3,4,4,5,5,6,6,7,7,8,8,9,9,10,10,11,11,12,12,13,13,14,14,15,15,16,16,17,17,18,18,19,19,20,20,21,21,22,22,23,23,24,24,25,25,26,26,27,27,28,28,29,29,30,30],"right_children":[2,4,6,8,10,12,14,16,18,20,22,24,26,28,30,32,34,36,38,40,42,44,46,48,50,52,54,56,58,60,62,-1,-1,-1,-1,-1,-1,-1,-1,-1,-1,-1,-1,-1,-1,-1,-1,-1,-1,-1,-1,-1,-1,-1,-1,-1,-1,-1,-1,-1,-1,-1,-1],"split_conditions":[-3.5081744E-2,-4.260367E-1,-5.0468224E-1,6.788672E-1,-2.62774E-1,5.2565706E-1,2.8904217E-1,-9.073808E-1,1.3697813E0,-1.22679554E-1,-1.2195823E-1,-1.2345278E-1,-1.4538605E0,8.731875E-1,5.502132E-1,-6.980762E-1,-5.5267054E-1,-8.483621E-1,-6.1920995E-1,-8.562155E-1,-9.2117555E-2,-6.181705E-2,7.297541E-1,-1.20894E0,-5.47194E-1,1.3608121E0,-1.2279261E-1,-1.2207797E-1,7.9823636E-2,-1.2255639E-1,1.0458624E0,6.785804E-2,5.835252E-2,3.6405127E-2,5.4800805E-2,3.340767E-2,1.6590377E-2,-4.8382152E-2,-9.40513E-3,4.5702584E-2,-5.93563E-4,5.1036675E-2,7.145306E-2,-2.2405876E-2,-5.71102E-2,1.944237E-2,-9.719293E-3,2.7746264E-2,-7.0853992E-3,2.5220085E-2,5.6779422E-2,2.1761214E-2,-8.112316E-3,-4.009008E-2,4.5121968E-2,-4.428158E-2,-6.479346E-3,-3.226025E-2,-5.7017483E-2,-6.297114E-2,-3.304169E-2,-5.6734353E-2,-6.4105764E-2],"split_indices":[6,6,2,2,2,6,6,6,2,3,3,3,2,2,2,2,1,6,1,2,3,2,2,2,4,6,3,3,6,3,2,0,0,0,0,0,0,0,0,0,0,0,0,0,0,0,0,0,0,0,0,0,0,0,0,0,0,0,0,0,0,0,0],"split_type":[0,0,0,0,0,0,0,0,0,0,0,0,0,0,0,0,0,0,0,0,0,0,0,0,0,0,0,0,0,0,0,0,0,0,0,0,0,0,0,0,0,0,0,0,0,0,0,0,0,0,0,0,0,0,0,0,0,0,0,0,0,0,0],"sum_hessian":[8.336141E3,4.2070205E3,4.12912E3,2.1913328E3,2.0156877E3,9.414238E2,3.1876963E3,1.9377495E3,2.5358316E2,7.524867E2,1.2632012E3,5.598488E2,3.81575E2,1.2356165E3,1.9520797E3,9.200179E2,1.0177316E3,2.0365768E2,4.9925472E1,5.6422156E2,1.8826509E2,1.0362442E2,1.1595767E3,4.776574E2,8.2191444E1,5.70094E1,3.245656E2,8.242864E2,4.113301E2,9.382255E2,1.0138542E3,5.252336E2,3.9478433E2,4.2470963E2,5.9302203E2,6.525719E1,1.384005E2,9.30275E0,4.0622723E1,3.4652982E2,2.1769177E2,1.06353424E2,8.1911674E1,5.5844967E1,4.7779457E1,6.718088E2,4.877679E2,1.702137E2,3.074437E2,1.2617539E1,6.9573906E1,4.1812702E1,1.5196696E1,3.0890445E2,1.5661173E1,1.8334042E2,6.40946E2,1.5721144E2,2.5411867E2,4.1448376E2,5.2374176E2,4.4099255E2,5.7286163E2],"tree_param":{"num_deleted":"0","num_feature":"9","num_nodes":"63","size_leaf_vector":"1"}},{"base_weights":[-1.7231161E-3,7.414E-1,-5.798452E-1,1.1193057E0,1.6197199E-1,-2.7858692E-3,-1.0069706E0,1.2394555E0,8.849128E-1,4.2334542E-1,-1.619454E-1,3.7626305E-1,-3.3970556E-1,-6.8575346E-1,-1.1464859E0,1.3152963E0,1.1162513E0,1.0138854E0,6.589891E-1,8.884509E-1,1.7724925E-1,3.921569E-1,-3.3915418E-1,6.5466225E-1,3.6165703E-2,8.768397E-2,-7.069074E-1,-4.407601E-1,-9.1406006E-1,-1.0236732E0,-1.2311248E0,6.628175E-2,4.8984066E-2,4.6921007E-2,6.124884E-2,5.1125597E-2,-3.9380784E-3,3.389383E-2,-2.050223E-2,5.7350367E-2,3.66566E-2,-1.026782E-2,1.2870498E-2,2.9969815E-2,-2.9754398E-2,-9.057759E-3,-3.684061E-2,5.8985807E-2,2.7888024E-2,1.0390701E-2,-8.478605E-3,1.7447656E-2,-1.3864981E-2,-2.4012003E-2,-4.678831E-2,-8.245419E-3,-2.9103661E-2,-2.7658114E-2,-4.8457842E-2,-4.447413E-2,-5.8920067E-2,-5.6084137E-2,-6.321921E-2],"categories":[],"categories_nodes":[],"categories_segments":[],"categories_sizes":[],"default_left":[0,0,0,0,0,0,0,0,0,0,0,0,0,0,0,0,0,0,0,0,0,0,0,0,0,0,0,0,0,0,0,0,0,0,0,0,0,0,0,0,0,0,0,0,0,0,0,0,0,0,0,0,0,0,0,0,0,0,0,0,0,0,0],"id":12,"left_children":[1,3,5,7,9,11,13,15,17,19,21,23,25,27,29,31,33,35,37,39,41,43,45,47,49,51,53,55,57,59,61,-1,-1,-1,-1,-1,-1,-1,-1,-1,-1,-1,-1,-1,-1,-1,-1,-1,-1,-1,-1,-1,-1,-1,-1,-1,-1,-1,-1,-1,-1,-1,-1],"loss_changes":[3.5658792E3,7.950719E2,1.1506366E3,6.0803467E1,1.2154509E2,2.5384286E2,1.19437744E2,1.2086182E1,2.1137695E1,9.076407E1,6.3120087E1,8.853854E1,1.6520926E2,4.517389E1,1.8165771E1,1.7973633E0,9.664917E0,4.5534973E0,5.826935E0,1.0187363E1,1.6023603E1,3.225374E1,3.0437336E1,2.5507492E1,1.4940928E1,4.6554604E1,2.8917908E1,1.530114E1,7.832245E0,1.4906494E1,2.5910645E0,0E0,0E0,0E0,0E0,0E0,0E0,0E0,0E0,0E0,0E0,0E0,0E0,0E0,0E0,0E0,0E0,0E0,0E0,0E0,0E0,0E0,0E0,0E0,0E0,0E0,0E0,0E0,0E0,0E0,0E0,0E0,0E0],"parents":[2147483647,0,0,1,1,2,2,3,3,4,4,5,5,6,6,7,7,8,8,9,9,10,10,11,11,12,12,13,13,14,14,15,15,16,16,17,17,18,18,19,19,20,20,21,21,22,22,23,23,24,24,25,25,26,26,27,27,28,28,29,29,30,30],"right_children":[2,4,6,8,10,12,14,16,18,20,22,24,26,28,30,32,34,36,38,40,42,44,46,48,50,52,54,56,58,60,62,-1,-1,-1,-1,-1,-1,-1,-1,-1,-1,-1,-1,-1,-1,-1,-1,-1,-1,-1,-1,-1,-1,-1,-1,-1,-1,-1,-1,-1,-1,-1,-1],"split_conditions":[-1.1822516E-1,-7.6809466E-2,1.7490275E-2,-4.260367E-1,3.9290398E-1,2.2006421E-1,1.6581996E-1,-7.577704E-1,-3.1997377E-1,-5.1434267E-1,-8.1225824E-1,-2.8748837E-1,-4.6966454E-1,3.4963265E-1,5.2565706E-1,-1.5125166E-1,-5.532744E-1,4.110843E0,2.9066982E0,-9.4463474E-1,-1.3375068E-1,2.232545E0,1.0737143E0,-1.4538605E0,4.8957624E-2,7.287893E-1,5.2565706E-1,2.4036501E-1,-1.6592118E-1,7.6683354E-1,3.30651E-2,6.628175E-2,4.8984066E-2,4.6921007E-2,6.124884E-2,5.1125597E-2,-3.9380784E-3,3.389383E-2,-2.050223E-2,5.7350367E-2,3.66566E-2,-1.026782E-2,1.2870498E-2,2.9969815E-2,-2.9754398E-2,-9.057759E-3,-3.684061E-2,5.8985807E-2,2.7888024E-2,1.0390701E-2,-8.478605E-3,1.7447656E-2,-1.3864981E-2,-2.4012003E-2,-4.678831E-2,-8.245419E-3,-2.9103661E-2,-2.7658114E-2,-4.8457842E-2,-4.447413E-2,-5.8920067E-2,-5.6084137E-2,-6.321921E-2],"split_indices":[7,8,8,7,8,7,7,7,8,7,7,8,8,8,7,8,0,5,4,7,3,8,8,2,7,7,7,2,2,2,2,0,0,0,0,0,0,0,0,0,0,0,0,0,0,0,0,0,0,0,0,0,0,0,0,0,0,0,0,0,0,0,0],"split_type":[0,0,0,0,0,0,0,0,0,0,0,0,0,0,0,0,0,0,0,0,0,0,0,0,0,0,0,0,0,0,0,0,0,0,0,0,0,0,0,0,0,0,0,0,0,0,0,0,0,0,0,0,0,0,0,0,0,0,0,0,0,0,0],"sum_hessian":[8.298156E3,3.6308052E3,4.6673506E3,2.1969878E3,1.4338174E3,1.9856646E3,2.6816863E3,1.4496229E3,7.473648E2,7.933474E2,6.4047E2,9.3435675E2,1.0513077E3,8.138377E2,1.8678484E3,8.912932E2,5.583297E2,4.7354535E2,2.7381946E2,2.7361777E2,5.197297E2,1.5490256E2,4.8556744E2,5.132732E2,4.2108356E2,4.861891E2,5.6511865E2,3.93986E2,4.198517E2,7.6741223E2,1.1004363E3,8.6179584E2,2.949738E1,2.1549582E2,3.428339E2,4.6989963E2,3.6457236E0,2.694252E2,4.394258E0,1.0028704E2,1.7333072E2,8.9757385E1,4.299723E2,1.2835213E2,2.6550423E1,3.485398E2,1.3702762E2,7.822786E1,4.3504535E2,2.2955463E2,1.9152892E2,2.833793E2,2.0280975E2,2.8547537E2,2.796433E2,1.3419543E2,2.597906E2,5.706979E1,3.6278192E2,4.1459583E2,3.5281638E2,2.6457312E2,8.358631E2],"tree_param":{"num_deleted":"0","num_feature":"9","num_nodes":"63","size_leaf_vector":"1"}},{"base_weights":[1.9191288E-3,6.6812915E-1,-5.7656467E-1,9.951567E-1,3.5681326E-2,-1.9894175E-2,-9.851809E-1,1.1496758E0,7.003327E-1,4.1910163E-1,-2.3639096E-1,2.4210468E-1,-3.961431E-1,-7.4185556E-1,-1.1413872E0,1.2328806E0,9.3412757E-1,8.6647445E-1,4.8620674E-1,6.8426275E-1,5.1383812E-2,1.2611092E-2,-6.169289E-1,6.3488066E-1,-2.5882948E-2,3.9694116E-1,-5.9510344E-1,-5.3206134E-1,-9.304907E-1,-1.0681146E0,-1.2542907E0,6.47076E-2,5.6258034E-2,5.8225017E-2,4.074258E-2,5.1122963E-2,3.490858E-2,1.0006762E-2,3.0928833E-2,5.2091163E-2,2.524429E-2,3.5131715E-2,-4.22192E-3,8.056684E-3,-1.0187082E-2,-2.2882909E-2,-4.633445E-2,3.903493E-2,1.7736185E-2,8.481129E-3,-1.0477575E-2,2.5364092E-2,-1.7586626E-2,-1.4956623E-2,-3.9169323E-2,-1.7231908E-2,-4.1277926E-2,-3.531296E-2,-4.9157877E-2,-4.3547064E-2,-5.841112E-2,-1.4500027E-2,-6.313804E-2],"categories":[],"categories_nodes":[],"categories_segments":[],"categories_sizes":[],"default_left":[0,0,0,0,0,0,0,0,0,0,0,0,0,0,0,0,0,0,0,0,0,0,0,0,0,0,0,0,0,0,0,0,0,0,0,0,0,0,0,0,0,0,0,0,0,0,0,0,0,0,0,0,0,0,0,0,0,0,0,0,0,0,0],"id":13,"left_children":[1,3,5,7,9,11,13,15,17,19,21,23,25,27,29,31,33,35,37,39,41,43,45,47,49,51,53,55,57,59,61,-1,-1,-1,-1,-1,-1,-1,-1,-1,-1,-1,-1,-1,-1,-1,-1,-1,-1,-1,-1,-1,-1,-1,-1,-1,-1,-1,-1,-1,-1,-1,-1],"loss_changes":[3.1393193E3,7.8298083E2,9.9171594E2,1.12876465E2,1.3481552E2,1.8213135E2,9.471948E1,2.8184814E1,3.0197754E1,5.2263947E1,7.164467E1,1.14666534E2,1.19908775E2,3.8521057E1,1.1312866E1,6.312866E0,1.1682587E1,1.1975769E1,1.4202042E1,1.945729E1,2.0033203E1,1.4749033E1,1.4329773E1,1.7771286E1,2.3319214E1,1.2793261E1,3.3575546E1,2.5519882E1,5.420471E0,1.7423096E1,4.503235E0,0E0,0E0,0E0,0E0,0E0,0E0,0E0,0E0,0E0,0E0,0E0,0E0,0E0,0E0,0E0,0E0,0E0,0E0,0E0,0E0,0E0,0E0,0E0,0E0,0E0,0E0,0E0,0E0,0E0,0E0,0E0,0E0],"parents":[2147483647,0,0,1,1,2,2,3,3,4,4,5,5,6,6,7,7,8,8,9,9,10,10,11,11,12,12,13,13,14,14,15,15,16,16,17,17,18,18,19,19,20,20,21,21,22,22,23,23,24,24,25,25,26,26,27,27,28,28,29,29,30,30],"right_children":[2,4,6,8,10,12,14,16,18,20,22,24,26,28,30,32,34,36,38,40,42,44,46,48,50,52,54,56,58,60,62,-1,-1,-1,-1,-1,-1,-1,-1,-1,-1,-1,-1,-1,-1,-1,-1,-1,-1,-1,-1,-1,-1,-1,-1,-1,-1,-1,-1,-1,-1,-1,-1],"split_conditions":[-8.2629845E-2,3.8195323E-2,1.7490275E-2,-3.7257534E-1,-4.6217144E-1,3.7455583E-1,2.8904217E-1,-3.7096694E-1,-2.791402E-1,6.40981E-1,4.8053738E-1,-4.2209968E-1,-9.838804E-1,3.578548E-1,9.1322184E-1,-7.4292797E-1,-8.1225824E-1,-6.243689E-1,-1.2070205E-1,-9.2611104E-1,-1.4799623E0,-2.0147638E-1,1.0239502E0,1.8539569E-1,9.167951E-2,2.1692085E0,-4.2209968E-1,7.6683354E-1,-2.1029519E-2,-5.7157487E-1,-1.3127265E0,6.47076E-2,5.6258034E-2,5.8225017E-2,4.074258E-2,5.1122963E-2,3.490858E-2,1.0006762E-2,3.0928833E-2,5.2091163E-2,2.524429E-2,3.5131715E-2,-4.22192E-3,8.056684E-3,-1.0187082E-2,-2.2882909E-2,-4.633445E-2,3.903493E-2,1.7736185E-2,8.481129E-3,-1.0477575E-2,2.5364092E-2,-1.7586626E-2,-1.4956623E-2,-3.9169323E-2,-1.7231908E-2,-4.1277926E-2,-3.531296E-2,-4.9157877E-2,-4.3547064E-2,-5.841112E-2,-1.4500027E-2,-6.313804E-2],"split_indices":[6,8,8,6,6,6,6,8,8,8,8,8,8,8,6,6,6,2,3,6,6,6,8,6,6,6,8,2,6,1,2,0,0,0,0,0,0,0,0,0,0,0,0,0,0,0,0,0,0,0,0,0,0,0,0,0,0,0,0,0,0,0,0],"split_type":[0,0,0,0,0,0,0,0,0,0,0,0,0,0,0,0,0,0,0,0,0,0,0,0,0,0,0,0,0,0,0,0,0,0,0,0,0,0,0,0,0,0,0,0,0,0,0,0,0,0,0,0,0,0,0,0,0,0,0,0,0,0,0],"sum_hessian":[8.143789E3,3.7848347E3,4.358954E3,2.4944336E3,1.2904011E3,1.845636E3,2.513318E3,1.6347507E3,8.59683E2,5.353765E2,7.550246E2,1.0882179E3,7.57418E2,9.8488855E2,1.5284296E3,1.1760564E3,4.5869434E2,4.8236578E2,3.773172E2,3.1056644E2,2.2481012E2,4.56974E2,2.980506E2,4.4079617E2,6.4742175E2,1.5170505E2,6.0571295E2,4.6810117E2,5.1678735E2,9.3323505E2,5.951946E2,7.4263135E2,4.33425E2,1.5348543E2,3.052089E2,2.477102E2,2.346556E2,1.2015531E2,2.571619E2,1.0214601E2,2.0842041E2,3.8074493E1,1.8673563E2,2.7111395E2,1.8586006E2,1.9847652E2,9.9574066E1,2.8872964E2,1.520665E2,3.136424E2,3.337794E2,1.324995E2,1.920555E1,2.36514E2,3.6919894E2,2.8700073E2,1.8110043E2,1.0103526E2,4.157521E2,3.175282E2,6.1570685E2,5.48933E0,5.8970526E2],"tree_param":{"num_deleted":"0","num_feature":"9","num_nodes":"63","size_leaf_vector":"1"}},{"base_weights":[-2.33145E-3,6.474823E-1,-5.674202E-1,9.227622E-1,-8.1926145E-2,-2.7414117E-2,-9.7647744E-1,1.0804923E0,5.71661E-1,3.328396E-1,-3.1660843E-1,1.7288132E-1,-4.8492575E-1,-7.666379E-1,-1.1493753E0,1.1973925E0,8.549396E-1,7.9631823E-1,2.8956902E-1,5.277532E-1,-2.1001066E-1,-1.9573668E-1,-7.1603024E-1,4.5760956E-1,-1.5597044E-1,4.4282997E-1,-6.539223E-1,-5.831138E-1,-9.6281296E-1,-9.8569477E-1,-1.1981785E0,6.297095E-2,5.430567E-2,5.668384E-2,3.682536E-2,4.809959E-2,3.2201674E-2,2.3143942E-2,9.681872E-3,3.8178813E-2,1.4744158E-2,2.700441E-4,-4.6582006E-2,-1.6389268E-3,-2.0062597E-2,-1.242785E-2,-3.931317E-2,3.4977227E-2,1.2647069E-2,6.2135124E-4,-2.3097187E-2,5.3372007E-2,1.5011705E-2,-1.7812459E-2,-4.375949E-2,-1.9024506E-2,-4.0732663E-2,-3.7452586E-2,-5.3409386E-2,-4.418884E-2,-6.140243E-2,-5.759676E-2,-6.336085E-2],"categories":[],"categories_nodes":[],"categories_segments":[],"categories_sizes":[],"default_left":[0,0,0,0,0,0,0,0,0,0,0,0,0,0,0,0,0,0,0,0,0,0,0,0,0,0,0,0,0,0,0,0,0,0,0,0,0,0,0,0,0,0,0,0,0,0,0,0,0,0,0,0,0,0,0,0,0,0,0,0,0,0,0],"id":14,"left_children":[1,3,5,7,9,11,13,15,17,19,21,23,25,27,29,31,33,35,37,39,41,43,45,47,49,51,53,55,57,59,61,-1,-1,-1,-1,-1,-1,-1,-1,-1,-1,-1,-1,-1,-1,-1,-1,-1,-1,-1,-1,-1,-1,-1,-1,-1,-1,-1,-1,-1,-1,-1,-1],"loss_changes":[2.9677788E3,7.549015E2,9.5486914E2,1.5052954E2,1.0045481E2,1.7091815E2,8.835669E1,4.860327E1,5.3521393E1,3.9579967E1,3.1671371E1,1.2154532E2,8.932999E1,3.955011E1,9.575073E0,7.1712646E0,2.0490082E1,1.1278137E1,6.1881485E0,1.4863396E1,1.5435686E1,1.6973644E1,4.818001E0,3.4265106E1,3.1063389E1,7.5266323E0,3.1356369E1,2.6814453E1,1.1295013E1,6.6929016E0,1.8370361E0,0E0,0E0,0E0,0E0,0E0,0E0,0E0,0E0,0E0,0E0,0E0,0E0,0E0,0E0,0E0,0E0,0E0,0E0,0E0,0E0,0E0,0E0,0E0,0E0,0E0,0E0,0E0,0E0,0E0,0E0,0E0,0E0],"parents":[2147483647,0,0,1,1,2,2,3,3,4,4,5,5,6,6,7,7,8,8,9,9,10,10,11,11,12,12,13,13,14,14,15,15,16,16,17,17,18,18,19,19,20,20,21,21,22,22,23,23,24,24,25,25,26,26,27,27,28,28,29,29,30,30],"right_children":[2,4,6,8,10,12,14,16,18,20,22,24,26,28,30,32,34,36,38,40,42,44,46,48,50,52,54,56,58,60,62,-1,-1,-1,-1,-1,-1,-1,-1,-1,-1,-1,-1,-1,-1,-1,-1,-1,-1,-1,-1,-1,-1,-1,-1,-1,-1,-1,-1,-1,-1,-1,-1],"split_conditions":[-8.2629845E-2,1.647549E-1,1.7490275E-2,-3.250627E-1,-5.3512317E-1,5.2565706E-1,3.6498907E-1,-3.6215022E-1,-2.0595783E-1,1.1901628E0,8.7354904E-1,-3.1178525E-1,-1.2493166E0,7.180295E-1,8.601648E-3,-6.9810224E-1,-8.1225824E-1,-6.243689E-1,-5.135214E-1,-8.483621E-1,1.1383681E0,-2.3271647E-1,-4.52856E-1,-6.6185206E-1,2.1319005E-1,-2.5755708E0,-4.4985217E-1,3.578548E-1,4.8957624E-2,1.2767146E0,9.83467E-1,6.297095E-2,5.430567E-2,5.668384E-2,3.682536E-2,4.809959E-2,3.2201674E-2,2.3143942E-2,9.681872E-3,3.8178813E-2,1.4744158E-2,2.700441E-4,-4.6582006E-2,-1.6389268E-3,-2.0062597E-2,-1.242785E-2,-3.931317E-2,3.4977227E-2,1.2647069E-2,6.2135124E-4,-2.3097187E-2,5.3372007E-2,1.5011705E-2,-1.7812459E-2,-4.375949E-2,-1.9024506E-2,-4.0732663E-2,-3.7452586E-2,-5.3409386E-2,-4.418884E-2,-6.140243E-2,-5.759676E-2,-6.336085E-2],"split_indices":[6,8,8,6,6,6,6,8,8,8,8,8,8,2,2,6,6,2,5,6,2,6,6,8,6,8,8,8,6,6,6,0,0,0,0,0,0,0,0,0,0,0,0,0,0,0,0,0,0,0,0,0,0,0,0,0,0,0,0,0,0,0,0],"split_type":[0,0,0,0,0,0,0,0,0,0,0,0,0,0,0,0,0,0,0,0,0,0,0,0,0,0,0,0,0,0,0,0,0,0,0,0,0,0,0,0,0,0,0,0,0,0,0,0,0,0,0,0,0,0,0,0,0,0,0,0,0,0,0],"sum_hessian":[8.0801323E3,3.7582517E3,4.321881E3,2.7283157E3,1.0299359E3,1.8632406E3,2.4586401E3,1.8811454E3,8.471704E2,3.7202292E2,6.57913E2,1.2963358E3,5.669048E2,1.1131211E3,1.345519E3,1.2361573E3,6.44988E2,4.7057938E2,3.76591E2,2.7375677E2,9.8266136E1,5.0621414E2,1.5169887E2,6.9456885E2,6.0176697E2,8.710367E1,4.798011E2,5.771567E2,5.359645E2,3.1390717E2,1.0316119E3,7.8710864E2,4.4904874E2,1.897734E2,4.5521457E2,2.2283542E2,2.4774397E2,1.328177E2,2.437733E2,1.3488367E2,1.3887312E2,7.644059E1,2.1825548E1,2.8298657E2,2.2322758E2,2.040721E1,1.3129166E2,3.171972E2,3.7737164E2,3.887638E2,2.1300319E2,1.4983952E1,7.211972E1,2.056919E2,2.741092E2,3.0920764E2,2.67949E2,1.7964616E2,3.563183E2,2.2424936E2,8.9657814E1,6.2838995E2,4.0322195E2],"tree_param":{"num_deleted":"0","num_feature":"9","num_nodes":"63","size_leaf_vector":"1"}},{"base_weights":[-1.490382E-3,7.435103E-1,-4.5548627E-1,1.0236845E0,1.8297338E-1,7.064919E-2,-8.470967E-1,1.1955951E0,8.6465204E-1,5.136788E-1,-8.409919E-3,4.7661597E-1,-2.0715716E-1,-5.314424E-1,-1.0554398E0,1.2149673E0,9.675069E-1,9.454044E-1,6.003452E-1,6.108457E-1,-6.2777513E-1,2.1177328E-1,-3.421436E-1,6.939875E-1,1.9105248E-1,1.490446E-1,-4.8463E-1,-3.1793526E-1,-7.705285E-1,-9.800543E-1,-1.203711E0,6.440331E-2,5.8542874E-2,-2.1238355E-3,5.2542683E-2,4.8004225E-2,-9.425905E-3,3.747819E-2,9.908671E-3,4.5660287E-2,2.0613546E-2,3.1789534E-2,-3.9696988E-2,1.8539578E-2,3.6474497E-3,-1.1750623E-2,-3.6136713E-2,3.99251E-2,2.4559913E-2,-4.0333193E-2,1.074672E-2,1.821277E-2,-1.1533317E-2,-1.1514685E-2,-3.918707E-2,8.231498E-5,-2.2218805E-2,-3.322381E-2,-4.7679927E-2,-3.9387096E-2,-5.3813E-2,-1.6985243E-2,-6.0610283E-2],"categories":[],"categories_nodes":[],"categories_segments":[],"categories_sizes":[],"default_left":[0,0,0,0,0,0,0,0,0,0,0,0,0,0,0,0,0,0,0,0,0,0,0,0,0,0,0,0,0,0,0,0,0,0,0,0,0,0,0,0,0,0,0,0,0,0,0,0,0,0,0,0,0,0,0,0,0,0,0,0,0,0,0],"id":15,"left_children":[1,3,5,7,9,11,13,15,17,19,21,23,25,27,29,31,33,35,37,39,41,43,45,47,49,51,53,55,57,59,61,-1,-1,-1,-1,-1,-1,-1,-1,-1,-1,-1,-1,-1,-1,-1,-1,-1,-1,-1,-1,-1,-1,-1,-1,-1,-1,-1,-1,-1,-1,-1,-1],"loss_changes":[2.691065E3,4.7294434E2,1.01866504E3,5.3875977E1,6.362563E1,2.3811604E2,1.8583313E2,3.0775146E0,2.177716E1,4.125422E1,4.6933186E1,5.3110703E1,1.2398395E2,5.7382965E1,1.7892944E1,1.3399658E0,6.8008575E0,1.350061E1,1.4718925E1,2.004335E1,6.6778154E0,8.468479E0,1.01813965E1,9.92189E0,9.039631E0,4.500733E1,5.3450012E1,2.416758E1,9.692444E0,2.0180664E1,3.7770996E0,0E0,0E0,0E0,0E0,0E0,0E0,0E0,0E0,0E0,0E0,0E0,0E0,0E0,0E0,0E0,0E0,0E0,0E0,0E0,0E0,0E0,0E0,0E0,0E0,0E0,0E0,0E0,0E0,0E0,0E0,0E0,0E0],"parents":[2147483647,0,0,1,1,2,2,3,3,4,4,5,5,6,6,7,7,8,8,9,9,10,10,11,11,12,12,13,13,14,14,15,15,16,16,17,17,18,18,19,19,20,20,21,21,22,22,23,23,24,24,25,25,26,26,27,27,28,28,29,29,30,30],"right_children":[2,4,6,8,10,12,14,16,18,20,22,24,26,28,30,32,34,36,38,40,42,44,46,48,50,52,54,56,58,60,62,-1,-1,-1,-1,-1,-1,-1,-1,-1,-1,-1,-1,-1,-1,-1,-1,-1,-1,-1,-1,-1,-1,-1,-1,-1,-1,-1,-1,-1,-1,-1,-1],"split_conditions":[-2.07166E-1,1.7490275E-2,-1.568587E-2,-6.832967E-1,-6.43455E-1,1.0515333E-1,1.9129328E-1,-1.6516575E-1,-1.8499967E-1,2.232545E0,4.902854E-1,-2.8748837E-1,-4.9795997E-1,3.578548E-1,9.1322184E-1,-3.0497268E-1,-6.212827E-1,3.4769418E0,-1.8388608E-1,-1.0659161E0,-5.41449E-1,1.920171E-1,1.3306596E0,-1.6363117E-1,-6.2092286E-1,7.1513015E-1,4.4515365E-1,-4.6878374E-1,1.0727407E0,-5.606582E-1,-1.3127265E0,6.440331E-2,5.8542874E-2,-2.1238355E-3,5.2542683E-2,4.8004225E-2,-9.425905E-3,3.747819E-2,9.908671E-3,4.5660287E-2,2.0613546E-2,3.1789534E-2,-3.9696988E-2,1.8539578E-2,3.6474497E-3,-1.1750623E-2,-3.6136713E-2,3.99251E-2,2.4559913E-2,-4.0333193E-2,1.074672E-2,1.821277E-2,-1.1533317E-2,-1.1514685E-2,-3.918707E-2,8.231498E-5,-2.2218805E-2,-3.322381E-2,-4.7679927E-2,-3.9387096E-2,-5.3813E-2,-1.6985243E-2,-6.0610283E-2],"split_indices":[6,8,8,6,6,6,6,8,8,8,8,8,8,8,6,5,0,5,5,6,2,8,8,5,0,6,6,0,2,0,2,0,0,0,0,0,0,0,0,0,0,0,0,0,0,0,0,0,0,0,0,0,0,0,0,0,0,0,0,0,0,0,0],"split_type":[0,0,0,0,0,0,0,0,0,0,0,0,0,0,0,0,0,0,0,0,0,0,0,0,0,0,0,0,0,0,0,0,0,0,0,0,0,0,0,0,0,0,0,0,0,0,0,0,0,0,0,0,0,0,0,0,0,0,0,0,0,0,0],"sum_hessian":[7.9543794E3,3.0116565E3,4.9427227E3,2.0074454E3,1.0042111E3,2.1094539E3,2.8332688E3,9.6153186E2,1.0459136E3,3.6749872E2,6.367124E2,8.5674744E2,1.2527064E3,1.127929E3,1.7053398E3,8.8227155E2,7.926034E1,7.991701E2,2.4674345E2,3.3909772E2,2.8401024E1,3.8383795E2,2.528744E2,4.85644E2,3.7110342E2,5.487366E2,7.0396985E2,5.970684E2,5.3086053E2,1.135585E3,5.697549E2,3.214174E2,5.608541E2,6.079558E0,7.318078E1,7.891074E2,1.0062679E1,1.793391E2,6.740434E1,1.3299458E2,2.0610312E2,2.9723215E0,2.5428703E1,1.7812787E2,2.0571008E2,1.9859117E2,5.428324E1,3.185372E2,1.6710683E2,7.9090605E0,3.6319437E2,3.5025906E2,1.9847748E2,3.8141785E2,3.22552E2,1.6953998E2,4.2752844E2,3.3906827E2,1.9179227E2,3.8172202E2,7.53863E2,5.9461727E0,5.638087E2],"tree_param":{"num_deleted":"0","num_feature":"9","num_nodes":"63","size_leaf_vector":"1"}},{"base_weights":[-1.0615749E-2,6.666E-1,-4.8495206E-1,9.8840624E-1,1.8405965E-1,3.9566837E-2,-8.6603945E-1,1.1006418E0,7.5053245E-1,3.331153E-1,-2.6049593E-1,3.2620937E-1,-2.9327473E-1,-5.3798527E-1,-1.04009E0,1.1780072E0,9.530926E-1,1.0490308E0,6.768752E-1,7.8186655E-1,1.6438091E-1,5.111818E-1,-3.8479543E-1,6.233007E-1,1.1573375E-1,2.9954684E-1,-4.663072E-1,-3.2714885E-1,-7.74524E-1,-9.120645E-1,-1.1345882E0,5.949349E-2,3.0307308E-2,3.5844117E-2,5.514065E-2,5.4158892E-2,-3.7667134E-3,1.9064775E-2,3.9668977E-2,5.3370785E-2,3.2130975E-2,1.3744761E-2,-2.803833E-3,4.6614643E-2,-2.0826666E-2,-7.507664E-3,-2.7724883E-2,4.7841024E-2,2.5983525E-2,1.2058544E-2,-4.4739246E-3,2.3377681E-2,-1.2114192E-2,-1.30724255E-2,-3.8068723E-2,-2.947718E-3,-2.1583688E-2,-3.134083E-2,-4.8530877E-2,-3.7557956E-2,-5.555069E-2,-5.3561654E-2,-6.067726E-2],"categories":[],"categories_nodes":[],"categories_segments":[],"categories_sizes":[],"default_left":[0,0,0,0,0,0,0,0,0,0,0,0,0,0,0,0,0,0,0,0,0,0,0,0,0,0,0,0,0,0,0,0,0,0,0,0,0,0,0,0,0,0,0,0,0,0,0,0,0,0,0,0,0,0,0,0,0,0,0,0,0,0,0],"id":16,"left_children":[1,3,5,7,9,11,13,15,17,19,21,23,25,27,29,31,33,35,37,39,41,43,45,47,49,51,53,55,57,59,61,-1,-1,-1,-1,-1,-1,-1,-1,-1,-1,-1,-1,-1,-1,-1,-1,-1,-1,-1,-1,-1,-1,-1,-1,-1,-1,-1,-1,-1,-1,-1,-1],"loss_changes":[2.5160862E3,5.0082532E2,9.2078064E2,5.084314E1,8.570279E1,1.851213E2,1.5177698E2,1.3862671E1,1.2999847E1,7.317256E1,3.1369986E1,6.511322E1,9.2242E1,4.597232E1,2.0041138E1,5.092163E0,1.536441E1,4.7501373E0,1.7017624E1,9.821762E0,1.7186764E1,1.8170235E1,1.1085228E1,1.443573E1,1.5759869E1,1.8635477E1,4.1836502E1,1.3761463E1,1.2022888E1,2.301117E1,3.6932373E0,0E0,0E0,0E0,0E0,0E0,0E0,0E0,0E0,0E0,0E0,0E0,0E0,0E0,0E0,0E0,0E0,0E0,0E0,0E0,0E0,0E0,0E0,0E0,0E0,0E0,0E0,0E0,0E0,0E0,0E0,0E0,0E0],"parents":[2147483647,0,0,1,1,2,2,3,3,4,4,5,5,6,6,7,7,8,8,9,9,10,10,11,11,12,12,13,13,14,14,15,15,16,16,17,17,18,18,19,19,20,20,21,21,22,22,23,23,24,24,25,25,26,26,27,27,28,28,29,29,30,30],"right_children":[2,4,6,8,10,12,14,16,18,20,22,24,26,28,30,32,34,36,38,40,42,44,46,48,50,52,54,56,58,60,62,-1,-1,-1,-1,-1,-1,-1,-1,-1,-1,-1,-1,-1,-1,-1,-1,-1,-1,-1,-1,-1,-1,-1,-1,-1,-1,-1,-1,-1,-1,-1,-1],"split_conditions":[-1.572058E-1,-7.6809466E-2,-1.568587E-2,-4.260367E-1,7.366752E-1,2.6498106E-1,1.6581996E-1,-5.3796047E-1,-1.1897421E0,-6.43455E-1,-1.2957081E0,-4.3229452E-1,-9.090744E-1,3.4963265E-1,5.3814954E-1,4.491221E-1,-5.532744E-1,-1.711895E-1,-1.22679554E-1,-1.117193E0,3.2186225E-1,2.232545E0,-5.7010466E-1,-1.0778122E0,7.333867E-2,1.3608121E0,6.588398E-1,-4.6878374E-1,9.4096524E-1,7.6683354E-1,1.0919455E0,5.949349E-2,3.0307308E-2,3.5844117E-2,5.514065E-2,5.4158892E-2,-3.7667134E-3,1.9064775E-2,3.9668977E-2,5.3370785E-2,3.2130975E-2,1.3744761E-2,-2.803833E-3,4.6614643E-2,-2.0826666E-2,-7.507664E-3,-2.7724883E-2,4.7841024E-2,2.5983525E-2,1.2058544E-2,-4.4739246E-3,2.3377681E-2,-1.2114192E-2,-1.30724255E-2,-3.8068723E-2,-2.947718E-3,-2.1583688E-2,-3.134083E-2,-4.8530877E-2,-3.7557956E-2,-5.555069E-2,-5.3561654E-2,-6.067726E-2],"split_indices":[6,8,8,6,8,6,6,8,2,6,6,8,8,8,6,2,0,8,3,6,8,8,6,8,6,6,6,0,2,2,6,0,0,0,0,0,0,0,0,0,0,0,0,0,0,0,0,0,0,0,0,0,0,0,0,0,0,0,0,0,0,0,0],"split_type":[0,0,0,0,0,0,0,0,0,0,0,0,0,0,0,0,0,0,0,0,0,0,0,0,0,0,0,0,0,0,0,0,0,0,0,0,0,0,0,0,0,0,0,0,0,0,0,0,0,0,0,0,0,0,0,0,0,0,0,0,0,0,0],"sum_hessian":[7.8307046E3,3.225382E3,4.6053223E3,1.934329E3,1.291053E3,1.9383389E3,2.6669836E3,1.3117711E3,6.2255786E2,9.6705756E2,3.2399545E2,1.0414575E3,8.9688135E2,9.2590607E2,1.7410775E3,8.559709E2,4.558003E2,1.2059617E2,5.019617E2,2.6326566E2,7.0379193E2,4.4516304E1,2.7947916E2,4.3105368E2,6.104039E2,2.0247081E2,6.944106E2,4.9081024E2,4.3509583E2,7.4390027E2,9.9717725E2,8.375171E2,1.8453815E1,1.7907156E2,2.7672873E2,1.17077156E2,3.5190086E0,1.4312254E2,3.5883917E2,8.411281E1,1.7915285E2,4.686254E2,2.3516653E2,3.0614672E1,1.3901632E1,1.18087685E2,1.6139146E2,1.0023329E2,3.308204E2,3.7872864E2,2.3167522E2,1.5465396E2,4.7816853E1,4.1096957E2,2.8344098E2,1.3808072E2,3.5272952E2,2.5055891E2,1.8453691E2,4.1391293E2,3.299873E2,5.613315E2,4.3584576E2],"tree_param":{"num_deleted":"0","num_feature":"9","num_nodes":"63","size_leaf_vector":"1"}},{"base_weights":[3.6165344E-3,4.7992343E-1,-6.184546E-1,7.7341855E-1,1.3114397E-1,-2.1431032E-1,-8.2662E-1,8.8403386E-1,2.3762624E-1,4.4899982E-1,-1.03314586E-1,-3.772607E-1,4.5882463E-1,-6.3125503E-1,-1.0253257E0,1.0806254E0,7.163352E-1,3.452318E-1,-1.1990382E-1,2.6668963E-1,8.402991E-1,-1.2050982E0,-4.471309E-2,-5.269998E-4,-7.286768E-1,7.442533E-1,2.599604E-1,-3.6494303E-1,-8.7698144E-1,-9.262295E-1,-1.1375955E0,5.8417767E-2,4.80845E-2,3.0361889E-2,4.8023414E-2,4.3894798E-2,1.2786159E-2,-3.7173312E-2,-6.137215E-4,3.1281933E-2,-1.2320449E-2,5.3265918E-2,2.7691448E-2,-6.307905E-2,1.2175824E-2,8.558174E-3,-1.3508488E-2,1.6971504E-2,-1.231701E-2,-2.5915703E-2,-4.8889276E-2,1.8514408E-2,5.424375E-2,-2.1454863E-2,2.1564497E-2,-5.3570163E-2,-7.7521666E-3,-3.6816686E-2,-5.342684E-2,-6.0778946E-2,-4.0100757E-2,-5.3934287E-2,-6.0234398E-2],"categories":[],"categories_nodes":[],"categories_segments":[],"categories_sizes":[],"default_left":[0,0,0,0,0,0,0,0,0,0,0,0,0,0,0,0,0,0,0,0,0,0,0,0,0,0,0,0,0,0,0,0,0,0,0,0,0,0,0,0,0,0,0,0,0,0,0,0,0,0,0,0,0,0,0,0,0,0,0,0,0,0,0],"id":17,"left_children":[1,3,5,7,9,11,13,15,17,19,21,23,25,27,29,31,33,35,37,39,41,43,45,47,49,51,53,55,57,59,61,-1,-1,-1,-1,-1,-1,-1,-1,-1,-1,-1,-1,-1,-1,-1,-1,-1,-1,-1,-1,-1,-1,-1,-1,-1,-1,-1,-1,-1,-1,-1,-1],"loss_changes":[2.2823801E3,4.4648004E2,2.8084583E2,1.4018555E2,1.4870416E2,1.2488489E2,8.492822E1,6.3946777E1,1.5689459E1,6.0196762E1,7.41194E1,1.2125972E2,1.2410061E1,7.2589905E1,1.1087036E1,8.285522E0,2.7712646E1,1.469392E1,6.355773E0,1.06836624E2,1.6732468E1,5.051056E0,5.318588E1,3.7106827E1,2.432637E1,1.11441345E1,1.5816029E1,7.9373276E1,1.480603E1,2.0051422E1,7.053833E-1,0E0,0E0,0E0,0E0,0E0,0E0,0E0,0E0,0E0,0E0,0E0,0E0,0E0,0E0,0E0,0E0,0E0,0E0,0E0,0E0,0E0,0E0,0E0,0E0,0E0,0E0,0E0,0E0,0E0,0E0,0E0,0E0],"parents":[2147483647,0,0,1,1,2,2,3,3,4,4,5,5,6,6,7,7,8,8,9,9,10,10,11,11,12,12,13,13,14,14,15,15,16,16,17,17,18,18,19,19,20,20,21,21,22,22,23,23,24,24,25,25,26,26,27,27,28,28,29,29,30,30],"right_children":[2,4,6,8,10,12,14,16,18,20,22,24,26,28,30,32,34,36,38,40,42,44,46,48,50,52,54,56,58,60,62,-1,-1,-1,-1,-1,-1,-1,-1,-1,-1,-1,-1,-1,-1,-1,-1,-1,-1,-1,-1,-1,-1,-1,-1,-1,-1,-1,-1,-1,-1,-1,-1],"split_conditions":[4.8957624E-2,-3.250627E-1,-2.0825063E-1,5.502132E-1,-6.181705E-2,-1.2345278E-1,4.644619E-1,-8.1225824E-1,1.2874789E0,-1.22679554E-1,-1.2195823E-1,-8.709594E-1,-5.1672506E-1,6.195266E-1,7.5462794E-1,-6.871894E-1,-9.5214486E-2,-1.117193E0,-6.1970437E-1,-7.7484536E-1,-2.8733817E-1,2.254136E0,7.297541E-1,3.8332072E-1,5.868832E-1,-5.4429406E-1,-1.2243744E-1,-1.2159912E-1,1.2271346E0,-1.2255639E-1,9.83467E-1,5.8417767E-2,4.80845E-2,3.0361889E-2,4.8023414E-2,4.3894798E-2,1.2786159E-2,-3.7173312E-2,-6.137215E-4,3.1281933E-2,-1.2320449E-2,5.3265918E-2,2.7691448E-2,-6.307905E-2,1.2175824E-2,8.558174E-3,-1.3508488E-2,1.6971504E-2,-1.231701E-2,-2.5915703E-2,-4.8889276E-2,1.8514408E-2,5.424375E-2,-2.1454863E-2,2.1564497E-2,-5.3570163E-2,-7.7521666E-3,-3.6816686E-2,-5.342684E-2,-6.0778946E-2,-4.0100757E-2,-5.3934287E-2,-6.0234398E-2],"split_indices":[6,6,2,2,2,3,6,6,2,3,3,2,2,2,2,2,3,6,0,2,2,5,2,6,6,4,3,3,2,3,6,0,0,0,0,0,0,0,0,0,0,0,0,0,0,0,0,0,0,0,0,0,0,0,0,0,0,0,0,0,0,0,0],"split_type":[0,0,0,0,0,0,0,0,0,0,0,0,0,0,0,0,0,0,0,0,0,0,0,0,0,0,0,0,0,0,0,0,0,0,0,0,0,0,0,0,0,0,0,0,0,0,0,0,0,0,0,0,0,0,0,0,0,0,0,0,0,0,0],"sum_hessian":[7.7010195E3,4.3616353E3,3.3393848E3,2.3678723E3,1.9937628E3,1.1359725E3,2.203412E3,1.9621356E3,4.057367E2,8.459678E2,1.1477949E3,9.1492896E2,2.2104356E2,1.1131519E3,1.0902604E3,9.007506E2,1.061385E3,3.1189905E2,9.383764E1,5.7824115E2,2.6772665E2,5.6977646E1,1.0908173E3,4.4204187E2,4.7288705E2,8.964053E1,1.3140303E2,5.353924E2,5.7775946E2,5.8401917E2,5.062412E2,5.1330206E2,3.8744852E2,7.3597986E2,3.2540515E2,4.3604084E1,2.6829495E2,1.2943049E1,8.0894585E1,3.400986E2,2.3814255E2,1.4842314E2,1.1930352E2,5.496367E1,2.013979E0,5.57371E2,5.3344635E2,1.8533905E2,2.5670282E2,2.5805243E2,2.1483466E2,4.372375E1,4.5916782E1,2.5866789E1,1.0553625E2,1.2169585E2,4.1369656E2,3.3594156E2,2.4181792E2,1.7277185E2,4.112473E2,2.786518E2,2.275894E2],"tree_param":{"num_deleted":"0","num_feature":"9","num_nodes":"63","size_leaf_vector":"1"}},{"base_weights":[-4.168314E-3,4.6304482E-1,-6.059186E-1,8.4440255E-1,-3.5003014E-2,-1.6739385E-1,-9.6767753E-1,1.0199913E0,5.5894345E-1,2.7844435E-1,-2.883593E-1,1.2990694E-1,-4.0358835E-1,-8.067001E-1,-1.076361E0,1.119198E0,8.630929E-1,1.0306281E0,4.980095E-1,5.491919E-1,-4.1949492E-2,-6.5349296E-2,-5.4484236E-1,3.3288613E-1,-2.3082429E-1,-1.9343603E-1,-7.6221275E-1,-6.536091E-1,-9.8458225E-1,-9.211105E-1,-1.1237006E0,5.9262045E-2,5.204646E-2,3.2888345E-2,4.8703093E-2,5.244237E-3,5.4550458E-2,1.6835505E-2,3.1545125E-2,4.5141485E-2,2.0748222E-2,2.1665528E-2,-8.355963E-3,2.6642343E-3,-1.1295205E-2,-1.8710366E-2,-3.611654E-2,3.543204E-2,1.0568238E-2,1.9798232E-2,-2.5936732E-2,1.4364527E-3,-1.6470313E-2,-6.413237E-3,-4.13295E-2,-3.37266E-2,4.5204513E-2,-6.423741E-4,-4.9778614E-2,-4.9872667E-2,-6.424942E-3,-5.297906E-2,-5.9375077E-2],"categories":[],"categories_nodes":[],"categories_segments":[],"categories_sizes":[],"default_left":[0,0,0,0,0,0,0,0,0,0,0,0,0,0,0,0,0,0,0,0,0,0,0,0,0,0,0,0,0,0,0,0,0,0,0,0,0,0,0,0,0,0,0,0,0,0,0,0,0,0,0,0,0,0,0,0,0,0,0,0,0,0,0],"id":18,"left_children":[1,3,5,7,9,11,13,15,17,19,21,23,25,27,29,31,33,35,37,39,41,43,45,47,49,51,53,55,57,59,61,-1,-1,-1,-1,-1,-1,-1,-1,-1,-1,-1,-1,-1,-1,-1,-1,-1,-1,-1,-1,-1,-1,-1,-1,-1,-1,-1,-1,-1,-1,-1,-1],"loss_changes":[2.151381E3,8.181996E2,5.304186E2,1.2171399E2,1.4850385E2,1.0630175E2,3.1191895E1,2.2526855E1,2.6255188E1,7.253649E1,5.9110725E1,4.9181755E1,6.341861E1,1.9577728E1,6.982666E0,3.5284424E0,1.2780212E1,5.789192E0,1.7509048E1,2.1134888E1,2.2903494E1,1.0569142E1,1.4291077E1,1.9465237E1,4.3889614E1,1.6114511E1,1.2598404E1,1.3713501E1,3.6340942E0,1.5632706E1,2.1431885E0,0E0,0E0,0E0,0E0,0E0,0E0,0E0,0E0,0E0,0E0,0E0,0E0,0E0,0E0,0E0,0E0,0E0,0E0,0E0,0E0,0E0,0E0,0E0,0E0,0E0,0E0,0E0,0E0,0E0,0E0,0E0,0E0],"parents":[2147483647,0,0,1,1,2,2,3,3,4,4,5,5,6,6,7,7,8,8,9,9,10,10,11,11,12,12,13,13,14,14,15,15,16,16,17,17,18,18,19,19,20,20,21,21,22,22,23,23,24,24,25,25,26,26,27,27,28,28,29,29,30,30],"right_children":[2,4,6,8,10,12,14,16,18,20,22,24,26,28,30,32,34,36,38,40,42,44,46,48,50,52,54,56,58,60,62,-1,-1,-1,-1,-1,-1,-1,-1,-1,-1,-1,-1,-1,-1,-1,-1,-1,-1,-1,-1,-1,-1,-1,-1,-1,-1,-1,-1,-1,-1,-1,-1],"split_conditions":[4.1787844E-2,-5.7251815E-2,5.734717E-2,-3.1766888E-1,-3.250627E-1,-4.2209968E-1,4.0984437E-1,-5.3796047E-1,-1.4538605E0,4.3993953E-1,3.2186225E-1,6.588398E-1,4.644619E-1,7.6683354E-1,3.30651E-2,-8.873029E-1,-5.5846286E-1,-6.218201E-1,-1.1573109E-1,-8.1225824E-1,-1.0922124E0,1.4329016E-1,6.40981E-1,-1.0778122E0,-1.2493166E0,-2.0595783E-1,-6.205532E-1,1.6231858E0,-6.2257797E-1,-1.2292421E-1,8.698076E-1,5.9262045E-2,5.204646E-2,3.2888345E-2,4.8703093E-2,5.244237E-3,5.4550458E-2,1.6835505E-2,3.1545125E-2,4.5141485E-2,2.0748222E-2,2.1665528E-2,-8.355963E-3,2.6642343E-3,-1.1295205E-2,-1.8710366E-2,-3.611654E-2,3.543204E-2,1.0568238E-2,1.9798232E-2,-2.5936732E-2,1.4364527E-3,-1.6470313E-2,-6.413237E-3,-4.13295E-2,-3.37266E-2,4.5204513E-2,-6.423741E-4,-4.9778614E-2,-4.9872667E-2,-6.424942E-3,-5.297906E-2,-5.9375077E-2],"split_indices":[6,8,8,6,6,8,6,8,2,8,8,6,6,2,2,6,0,0,3,6,6,8,8,8,8,8,0,3,0,3,6,0,0,0,0,0,0,0,0,0,0,0,0,0,0,0,0,0,0,0,0,0,0,0,0,0,0,0,0,0,0,0,0],"split_type":[0,0,0,0,0,0,0,0,0,0,0,0,0,0,0,0,0,0,0,0,0,0,0,0,0,0,0,0,0,0,0,0,0,0,0,0,0,0,0,0,0,0,0,0,0,0,0,0,0,0,0,0,0,0,0,0,0,0,0,0,0,0,0],"sum_hessian":[7.6501973E3,4.306646E3,3.3435513E3,2.438658E3,1.867988E3,1.5120746E3,1.8314766E3,1.508309E3,9.3034894E2,8.3493005E2,1.0330579E3,6.696404E2,8.4243414E2,7.4154816E2,1.0899285E3,9.202823E2,5.8802673E2,1.0461545E2,8.257335E2,4.521383E2,3.8279178E2,5.5325867E2,4.7979926E2,4.2856766E2,2.4107275E2,5.321412E2,3.1029303E2,4.0105875E2,3.4048938E2,2.594662E2,8.304623E2,4.9145258E2,4.2882974E2,2.0873378E2,3.7929294E2,6.573268E0,9.804218E1,3.7459763E2,4.511359E2,1.2282238E2,3.2931592E2,7.928623E1,3.0350555E2,3.1855005E2,2.347086E2,2.4620718E2,2.3359206E2,1.03550156E2,3.250175E2,7.576182E1,1.6531093E2,2.0233302E2,3.298081E2,2.8881163E1,2.8141187E2,3.9630264E2,4.756119E0,3.8320284E0,3.3665735E2,2.364348E2,2.303139E1,4.2297916E2,4.0748312E2],"tree_param":{"num_deleted":"0","num_feature":"9","num_nodes":"63","size_leaf_vector":"1"}},{"base_weights":[-2.8172268E-3,5.9164625E-1,-4.3903005E-1,8.914617E-1,3.8826862E-1,-1.9097324E-1,-7.7575916E-1,1.0059742E0,5.1567435E-1,6.445368E-1,2.2153507E-1,6.766507E-2,-5.564807E-1,-4.1887122E-1,-9.659013E-1,9.16852E-1,1.1606148E0,-8.241659E-2,5.479431E-1,5.0162876E-1,1.0785306E0,-4.8039198E-1,2.8476068E-1,4.264032E-1,-5.44684E-2,-3.759758E-1,-7.616741E-1,-5.400706E-1,2.809152E-1,-8.8806117E-1,-1.1292135E0,5.2650757E-2,1.4359357E-2,6.1699105E-3,5.826425E-2,3.178275E-2,-6.7135864E-3,4.095186E-2,5.0894734E-3,5.6937594E-2,3.5061177E-2,-1.6058879E-2,-5.94637E-2,1.9937763E-2,-5.395922E-3,5.0667048E-2,1.7813018E-2,-2.3201747E-2,1.1395405E-2,-1.6243592E-2,-4.2398628E-2,-2.7030453E-2,-4.6656854E-2,9.382684E-4,-3.825982E-2,4.8453208E-2,1.5859267E-3,-3.5308152E-2,-4.986995E-2,-5.3460754E-2,-6.0483884E-2],"categories":[],"categories_nodes":[],"categories_segments":[],"categories_sizes":[],"default_left":[0,0,0,0,0,0,0,0,0,0,0,0,0,0,0,0,0,0,0,0,0,0,0,0,0,0,0,0,0,0,0,0,0,0,0,0,0,0,0,0,0,0,0,0,0,0,0,0,0,0,0,0,0,0,0,0,0,0,0,0,0],"id":19,"left_children":[1,3,5,7,9,11,13,15,17,19,21,23,25,27,29,31,33,-1,35,37,39,41,43,45,47,49,51,53,55,57,59,-1,-1,-1,-1,-1,-1,-1,-1,-1,-1,-1,-1,-1,-1,-1,-1,-1,-1,-1,-1,-1,-1,-1,-1,-1,-1,-1,-1,-1,-1],"loss_changes":[1.9489175E3,1.9360999E2,3.6193152E2,5.4771606E1,8.091388E1,2.3612677E2,1.2435095E2,1.2493347E1,2.2001389E1,4.580243E1,5.120897E1,6.414034E1,3.804828E1,5.4499397E1,1.4234741E1,5.36109E1,1.5802002E0,0E0,1.794403E1,7.149396E1,3.3874817E0,1.0392529E1,4.732802E1,1.4945465E1,1.26467545E2,1.305368E1,1.7818512E1,6.877287E1,1.630408E1,1.5533081E1,5.5667114E-1,0E0,0E0,0E0,0E0,0E0,0E0,0E0,0E0,0E0,0E0,0E0,0E0,0E0,0E0,0E0,0E0,0E0,0E0,0E0,0E0,0E0,0E0,0E0,0E0,0E0,0E0,0E0,0E0,0E0,0E0],"parents":[2147483647,0,0,1,1,2,2,3,3,4,4,5,5,6,6,7,7,8,8,9,9,10,10,11,11,12,12,13,13,14,14,15,15,16,16,18,18,19,19,20,20,21,21,22,22,23,23,24,24,25,25,26,26,27,27,28,28,29,29,30,30],"right_children":[2,4,6,8,10,12,14,16,18,20,22,24,26,28,30,32,34,-1,36,38,40,42,44,46,48,50,52,54,56,58,60,-1,-1,-1,-1,-1,-1,-1,-1,-1,-1,-1,-1,-1,-1,-1,-1,-1,-1,-1,-1,-1,-1,-1,-1,-1,-1,-1,-1,-1,-1],"split_conditions":[-1.442701E-1,-6.43455E-1,3.8332072E-1,1.6285487E-1,-3.0927584E-1,4.04599E-1,-1.8570025E-1,-1.2171055E-1,-1.2207797E-1,-1.2279261E-1,-1.2195823E-1,-8.562155E-1,9.845202E-2,-1.23032086E-1,1.0640248E0,-6.871894E-1,-5.480739E-1,-8.241659E-2,1.2874789E0,-9.5612603E-1,-3.6491886E-1,1.2038399E-1,1.0324905E0,-1.8186127E0,-1.22317575E-1,1.8142269E0,8.862827E-1,-1.1185737E0,-5.63636E-1,-5.606582E-1,9.5617086E-1,5.2650757E-2,1.4359357E-2,6.1699105E-3,5.826425E-2,3.178275E-2,-6.7135864E-3,4.095186E-2,5.0894734E-3,5.6937594E-2,3.5061177E-2,-1.6058879E-2,-5.94637E-2,1.9937763E-2,-5.395922E-3,5.0667048E-2,1.7813018E-2,-2.3201747E-2,1.1395405E-2,-1.6243592E-2,-4.2398628E-2,-2.7030453E-2,-4.6656854E-2,9.382684E-4,-3.825982E-2,4.8453208E-2,1.5859267E-3,-3.5308152E-2,-4.986995E-2,-5.3460754E-2,-6.0483884E-2],"split_indices":[6,6,6,2,2,2,2,3,3,3,3,2,6,3,6,2,4,0,2,2,2,2,2,2,3,2,2,2,2,0,2,0,0,0,0,0,0,0,0,0,0,0,0,0,0,0,0,0,0,0,0,0,0,0,0,0,0,0,0,0,0],"split_type":[0,0,0,0,0,0,0,0,0,0,0,0,0,0,0,0,0,0,0,0,0,0,0,0,0,0,0,0,0,0,0,0,0,0,0,0,0,0,0,0,0,0,0,0,0,0,0,0,0,0,0,0,0,0,0,0,0,0,0,0,0],"sum_hessian":[7.513705E3,3.1798723E3,4.333833E3,1.2838549E3,1.8960176E3,2.4963926E3,1.8374402E3,9.827174E2,3.0113742E2,7.462191E2,1.1497985E3,1.4623956E3,1.0339971E3,6.397891E2,1.197651E3,6.2782135E2,3.548961E2,3.6886399E0,2.9744876E2,5.6299023E2,1.8322887E2,9.446421E1,1.0553342E3,3.7079166E2,1.0916039E3,5.5159827E2,4.823988E2,5.4553375E2,9.4255394E1,8.154279E2,3.8222314E2,5.156428E2,1.1217852E2,1.713709E0,3.5318237E2,2.6362317E2,3.3825596E1,3.1326196E2,2.4972826E2,1.5626898E2,2.6959896E1,7.832545E1,1.6138765E1,8.1788666E2,2.3744762E2,3.8146286E1,3.3264536E2,4.4521243E2,6.4639154E2,4.992336E2,5.236464E1,2.125341E2,2.698647E2,1.56921E2,3.8861273E2,2.4290148E1,6.996525E1,3.089336E2,5.064943E2,2.2714215E2,1.5508101E2],"tree_param":{"num_deleted":"0","num_feature":"9","num_nodes":"61","size_leaf_vector":"1"}},{"base_weights":[9.06484E-3,4.9558526E-1,-4.9572954E-1,8.0017275E-1,2.4565305E-1,-1.6412108E-1,-7.4567986E-1,8.932321E-1,2.83412E-1,5.320706E-1,5.019619E-2,5.5236783E-2,-5.1517975E-1,-5.200136E-1,-9.576857E-1,1.0605764E0,7.266866E-1,3.4498498E-1,-6.3257843E-1,3.7730935E-1,9.3395585E-1,-7.590553E-1,1.0636508E-1,-1.13517016E-1,4.293503E-1,1.00257516E-1,-6.633473E-1,-3.4104738E-1,-7.142612E-1,-8.649226E-1,-1.0852742E0,5.930009E-2,4.993934E-2,2.5369663E-2,4.4388026E-2,-4.809503E-2,1.9531347E-2,-9.647869E-3,-4.53879E-2,3.907048E-2,1.3048598E-3,5.688045E-2,3.9600383E-2,-2.9438013E-2,-5.827933E-2,2.1984914E-2,-2.5480415E-4,8.422686E-3,-3.407133E-2,4.780749E-2,1.5143353E-2,1.3532004E-2,-2.4613952E-2,-4.1653257E-2,3.954436E-3,-5.56647E-2,-1.1342993E-2,-2.4245543E-2,-4.3335076E-2,-3.2694157E-2,-4.9052622E-2,-5.0852355E-2,-5.902191E-2],"categories":[],"categories_nodes":[],"categories_segments":[],"categories_sizes":[],"default_left":[0,0,0,0,0,0,0,0,0,0,0,0,0,0,0,0,0,0,0,0,0,0,0,0,0,0,0,0,0,0,0,0,0,0,0,0,0,0,0,0,0,0,0,0,0,0,0,0,0,0,0,0,0,0,0,0,0,0,0,0,0,0,0],"id":20,"left_children":[1,3,5,7,9,11,13,15,17,19,21,23,25,27,29,31,33,35,37,39,41,43,45,47,49,51,53,55,57,59,61,-1,-1,-1,-1,-1,-1,-1,-1,-1,-1,-1,-1,-1,-1,-1,-1,-1,-1,-1,-1,-1,-1,-1,-1,-1,-1,-1,-1,-1,-1,-1,-1],"loss_changes":[1.8213892E3,2.8729376E2,3.0156506E2,8.15802E1,1.1618146E2,1.2059493E2,9.878259E1,3.9405884E1,1.4946888E1,5.2009293E1,5.621392E1,6.0938602E1,5.4977783E1,3.4776764E1,1.1710876E1,4.371155E0,2.518216E1,1.5010218E1,1.8573918E0,8.648198E1,5.845749E0,4.871132E0,4.2938927E1,1.0667559E2,1.970116E1,1.201733E1,6.1236618E1,4.615074E1,1.643689E1,1.4645874E1,1.6952515E0,0E0,0E0,0E0,0E0,0E0,0E0,0E0,0E0,0E0,0E0,0E0,0E0,0E0,0E0,0E0,0E0,0E0,0E0,0E0,0E0,0E0,0E0,0E0,0E0,0E0,0E0,0E0,0E0,0E0,0E0,0E0,0E0],"parents":[2147483647,0,0,1,1,2,2,3,3,4,4,5,5,6,6,7,7,8,8,9,9,10,10,11,11,12,12,13,13,14,14,15,15,16,16,17,17,18,18,19,19,20,20,21,21,22,22,23,23,24,24,25,25,26,26,27,27,28,28,29,29,30,30],"right_children":[2,4,6,8,10,12,14,16,18,20,22,24,26,28,30,32,34,36,38,40,42,44,46,48,50,52,54,56,58,60,62,-1,-1,-1,-1,-1,-1,-1,-1,-1,-1,-1,-1,-1,-1,-1,-1,-1,-1,-1,-1,-1,-1,-1,-1,-1,-1,-1,-1,-1,-1,-1,-1],"split_conditions":[-3.5081744E-2,-4.7200793E-1,-1.0782531E-3,5.502132E-1,-1.8570025E-1,5.2565706E-1,3.6498907E-1,-9.073808E-1,1.7293646E0,-1.22679554E-1,-1.2195823E-1,-1.2317165E-1,-1.1708705E0,7.6683354E-1,8.698076E-1,-1.2293493E0,-5.5267054E-1,-1.2084771E-1,1.857218E0,-1.0049561E0,-4.9299827E-1,1.2038399E-1,2.5080222E-1,-6.020135E-1,-5.63636E-1,1.5089916E0,-1.2207797E-1,-1.2121862E-1,9.845202E-2,-5.6030285E-1,1.0458624E0,5.930009E-2,4.993934E-2,2.5369663E-2,4.4388026E-2,-4.809503E-2,1.9531347E-2,-9.647869E-3,-4.53879E-2,3.907048E-2,1.3048598E-3,5.688045E-2,3.9600383E-2,-2.9438013E-2,-5.827933E-2,2.1984914E-2,-2.5480415E-4,8.422686E-3,-3.407133E-2,4.780749E-2,1.5143353E-2,1.3532004E-2,-2.4613952E-2,-4.1653257E-2,3.954436E-3,-5.56647E-2,-1.1342993E-2,-2.4245543E-2,-4.3335076E-2,-3.2694157E-2,-4.9052622E-2,-5.0852355E-2,-5.902191E-2],"split_indices":[6,6,2,2,2,6,6,6,2,3,3,3,2,2,6,2,1,3,2,2,2,2,2,2,2,6,3,3,6,1,2,0,0,0,0,0,0,0,0,0,0,0,0,0,0,0,0,0,0,0,0,0,0,0,0,0,0,0,0,0,0,0,0],"split_type":[0,0,0,0,0,0,0,0,0,0,0,0,0,0,0,0,0,0,0,0,0,0,0,0,0,0,0,0,0,0,0,0,0,0,0,0,0,0,0,0,0,0,0,0,0,0,0,0,0,0,0,0,0,0,0,0,0,0,0,0,0,0,0],"sum_hessian":[7.4142974E3,3.7754958E3,3.6388015E3,1.7006929E3,2.074803E3,1.5646461E3,2.0741553E3,1.4405476E3,2.6014532E2,8.4087866E2,1.2339243E3,9.634686E2,6.0117755E2,1.0063813E3,1.0677742E3,7.1587286E2,7.2467474E2,2.4434389E2,1.5801444E1,6.0849384E2,2.3238483E2,7.927391E1,1.1546504E3,6.6444824E2,2.990204E2,1.16713425E2,4.8446414E2,5.2522833E2,4.8115295E2,6.227693E2,4.4500482E2,2.3026654E2,4.8560632E2,3.0863504E2,4.1603967E2,7.5681095E0,2.3677577E2,6.7380633E0,9.063381E0,2.8237354E2,3.261203E2,9.256601E1,1.3981882E2,5.7595528E1,2.1678387E1,2.8860626E2,8.660441E2,4.444696E2,2.1997862E2,5.6623863E1,2.4239653E2,9.106977E1,2.5643656E1,3.9422406E2,9.024007E1,6.653108E1,4.5869724E2,1.9378282E2,2.8737015E2,2.2340753E2,3.9936176E2,2.6599142E2,1.790134E2],"tree_param":{"num_deleted":"0","num_feature":"9","num_nodes":"63","size_leaf_vector":"1"}},{"base_weights":[3.2591813E-3,4.2040145E-1,-5.380863E-1,8.1445825E-1,-1.1546378E-3,-3.869599E-2,-8.2773215E-1,9.9222064E-1,5.723865E-1,2.6423728E-1,-2.1659642E-1,1.3561709E-1,-2.994764E-1,-6.217087E-1,-9.7260517E-1,1.1042588E0,8.4917057E-1,7.9635274E-1,4.5230514E-1,5.205472E-1,-7.5326085E-2,-6.80049E-2,-6.382991E-1,6.1662257E-1,1.4395308E-2,-1.5245974E-1,-8.132202E-1,-3.8027453E-1,-7.7418953E-1,-8.722116E-1,-1.0814129E0,5.574282E-2,3.9666973E-2,1.2246109E-2,4.428234E-2,-2.6790312E-2,4.0386394E-2,1.6651766E-2,3.0860147E-2,3.709684E-2,1.7925166E-2,2.22825E-2,-8.580243E-3,5.264184E-3,-1.0837634E-2,-3.744059E-2,-2.4403052E-2,6.755682E-3,3.5468943E-2,2.5117123E-2,-4.8704445E-3,1.062827E-2,-1.098689E-2,-1.7061068E-2,-4.548115E-2,2.5103336E-2,-2.1122012E-2,-4.7675114E-2,-3.195113E-2,-4.9459483E-2,-3.626367E-2,-2.8550956E-2,-5.4971643E-2],"categories":[],"categories_nodes":[],"categories_segments":[],"categories_sizes":[],"default_left":[0,0,0,0,0,0,0,0,0,0,0,0,0,0,0,0,0,0,0,0,0,0,0,0,0,0,0,0,0,0,0,0,0,0,0,0,0,0,0,0,0,0,0,0,0,0,0,0,0,0,0,0,0,0,0,0,0,0,0,0,0,0,0],"id":21,"left_children":[1,3,5,7,9,11,13,15,17,19,21,23,25,27,29,31,33,35,37,39,41,43,45,47,49,51,53,55,57,59,61,-1,-1,-1,-1,-1,-1,-1,-1,-1,-1,-1,-1,-1,-1,-1,-1,-1,-1,-1,-1,-1,-1,-1,-1,-1,-1,-1,-1,-1,-1,-1,-1],"loss_changes":[1.6548717E3,6.875558E2,4.6129724E2,9.1487305E1,1.1445099E2,5.3308792E1,5.9642944E1,1.8809448E1,2.4063812E1,7.8098404E1,6.918654E1,4.0984283E1,3.5358307E1,3.0487854E1,1.1983643E1,1.3812866E0,1.1806091E1,5.216034E0,1.1466972E1,1.8074127E1,1.9471039E1,2.110988E1,4.4120255E0,6.2235413E0,3.0738615E1,9.047033E0,4.4352264E0,1.2327122E1,1.1788513E1,9.950745E0,4.5568237E0,0E0,0E0,0E0,0E0,0E0,0E0,0E0,0E0,0E0,0E0,0E0,0E0,0E0,0E0,0E0,0E0,0E0,0E0,0E0,0E0,0E0,0E0,0E0,0E0,0E0,0E0,0E0,0E0,0E0,0E0,0E0,0E0],"parents":[2147483647,0,0,1,1,2,2,3,3,4,4,5,5,6,6,7,7,8,8,9,9,10,10,11,11,12,12,13,13,14,14,15,15,16,16,17,17,18,18,19,19,20,20,21,21,22,22,23,23,24,24,25,25,26,26,27,27,28,28,29,29,30,30],"right_children":[2,4,6,8,10,12,14,16,18,20,22,24,26,28,30,32,34,36,38,40,42,44,46,48,50,52,54,56,58,60,62,-1,-1,-1,-1,-1,-1,-1,-1,-1,-1,-1,-1,-1,-1,-1,-1,-1,-1,-1,-1,-1,-1,-1,-1,-1,-1,-1,-1,-1,-1,-1,-1],"split_conditions":[4.1787844E-2,-1.1671978E-1,-9.721987E-2,-3.7257534E-1,-3.250627E-1,-3.963574E-1,3.404625E-1,-7.577704E-1,-5.819931E-1,4.5125946E-1,5.4467964E-1,1.8539569E-1,6.7051363E-1,2.4941808E-1,6.335639E-1,3.390013E0,-6.2143964E-1,-3.563604E0,-7.415459E-2,-6.3054484E-1,-1.2957081E0,1.172505E-1,-8.65139E-2,-5.441406E-1,-1.3597833E0,9.845202E-2,-6.19823E-1,-6.2008405E-1,-4.2672473E-1,-2.1852575E-1,-7.889614E-1,5.574282E-2,3.9666973E-2,1.2246109E-2,4.428234E-2,-2.6790312E-2,4.0386394E-2,1.6651766E-2,3.0860147E-2,3.709684E-2,1.7925166E-2,2.22825E-2,-8.580243E-3,5.264184E-3,-1.0837634E-2,-3.744059E-2,-2.4403052E-2,6.755682E-3,3.5468943E-2,2.5117123E-2,-4.8704445E-3,1.062827E-2,-1.098689E-2,-1.7061068E-2,-4.548115E-2,2.5103336E-2,-2.1122012E-2,-4.7675114E-2,-3.195113E-2,-4.9459483E-2,-3.626367E-2,-2.8550956E-2,-5.4971643E-2],"split_indices":[7,8,8,7,7,8,8,7,8,8,8,7,7,7,7,4,0,8,3,7,7,8,5,4,8,7,0,0,5,5,2,0,0,0,0,0,0,0,0,0,0,0,0,0,0,0,0,0,0,0,0,0,0,0,0,0,0,0,0,0,0,0,0],"split_type":[0,0,0,0,0,0,0,0,0,0,0,0,0,0,0,0,0,0,0,0,0,0,0,0,0,0,0,0,0,0,0,0,0,0,0,0,0,0,0,0,0,0,0,0,0,0,0,0,0,0,0,0,0,0,0,0,0,0,0,0,0,0,0],"sum_hessian":[7.3263384E3,4.137978E3,3.1883604E3,2.1382654E3,1.9997125E3,1.1708254E3,2.0175349E3,1.2311135E3,9.07152E2,8.958873E2,1.1038252E3,7.020411E2,4.687844E2,8.3515497E2,1.18238E3,6.866241E2,5.4448944E2,3.1465356E2,5.9249835E2,5.1022516E2,3.8566217E2,8.170796E2,2.867456E2,1.404906E2,5.615505E2,3.6548993E2,1.0329447E2,3.246333E2,5.1052167E2,6.196571E2,5.6272284E2,6.614917E2,2.5132387E1,3.1436787E1,5.130526E2,2.2737021E0,3.1237985E2,3.4556934E2,2.4692906E2,2.141153E2,2.9610986E2,5.9589176E1,3.26073E2,3.7754196E2,4.395376E2,1.6292006E2,1.23825554E2,2.3089077E1,1.1740152E2,1.0403171E2,4.5751877E2,5.654402E1,3.089459E2,1.8289001E1,8.500547E1,1.4308688E1,3.1032462E2,2.1682585E2,2.9369583E2,3.4180927E2,2.7784784E2,2.0304672E1,5.4241815E2],"tree_param":{"num_deleted":"0","num_feature":"9","num_nodes":"63","size_leaf_vector":"1"}},{"base_weights":[-1.0606373E-2,5.197637E-1,-3.9722052E-1,8.326967E-1,7.996404E-2,1.2534594E-3,-7.814499E-1,1.0547142E0,6.9963807E-1,2.8474054E-1,-1.5362853E-1,2.714331E-1,-2.2065823E-1,-4.942677E-1,-9.264985E-1,1.0704334E0,6.701595E-1,8.5279536E-1,5.6897265E-1,6.0586685E-1,1.0135921E-1,4.786289E-1,-2.2847326E-1,6.0093635E-1,1.022045E-1,5.8471255E-2,-4.8330745E-1,-3.054698E-1,-6.66865E-1,-7.985615E-1,-1.024403E0,5.8415174E-2,5.0622463E-2,5.0211556E-2,-1.2375144E-2,5.0480634E-2,3.6359858E-2,3.5751652E-2,1.5264444E-2,4.761475E-2,2.2504361E-2,-3.4350895E-3,1.5374283E-2,3.9548602E-2,-1.748654E-2,-3.587192E-3,-2.5812102E-2,5.8216285E-2,2.6174853E-2,-3.0386213E-3,1.0889795E-2,2.2803422E-2,-3.2804196E-3,-1.6748328E-2,-3.9701458E-2,-8.00931E-3,-2.7422745E-2,1.0690103E-2,-3.4506094E-2,-2.2892958E-2,-4.4464093E-2,-4.0981293E-2,-5.2726496E-2],"categories":[],"categories_nodes":[],"categories_segments":[],"categories_sizes":[],"default_left":[0,0,0,0,0,0,0,0,0,0,0,0,0,0,0,0,0,0,0,0,0,0,0,0,0,0,0,0,0,0,0,0,0,0,0,0,0,0,0,0,0,0,0,0,0,0,0,0,0,0,0,0,0,0,0,0,0,0,0,0,0,0,0],"id":22,"left_children":[1,3,5,7,9,11,13,15,17,19,21,23,25,27,29,31,33,35,37,39,41,43,45,47,49,51,53,55,57,59,61,-1,-1,-1,-1,-1,-1,-1,-1,-1,-1,-1,-1,-1,-1,-1,-1,-1,-1,-1,-1,-1,-1,-1,-1,-1,-1,-1,-1,-1,-1,-1,-1],"loss_changes":[1.4841426E3,4.1992645E2,6.409521E2,5.1931152E1,6.0782257E1,1.2333389E2,8.832068E1,3.3093262E0,2.1883667E1,3.9804348E1,2.820867E1,5.1665504E1,8.283005E1,2.3172043E1,1.6904541E1,2.4395142E0,9.0880785E0,9.361633E0,2.3127579E1,1.2839989E1,1.5168045E1,1.66221E1,2.3940237E1,1.3114357E1,1.1581823E1,2.708587E1,2.6559937E1,1.2071636E1,7.805832E0,1.8691711E1,4.058838E0,0E0,0E0,0E0,0E0,0E0,0E0,0E0,0E0,0E0,0E0,0E0,0E0,0E0,0E0,0E0,0E0,0E0,0E0,0E0,0E0,0E0,0E0,0E0,0E0,0E0,0E0,0E0,0E0,0E0,0E0,0E0,0E0],"parents":[2147483647,0,0,1,1,2,2,3,3,4,4,5,5,6,6,7,7,8,8,9,9,10,10,11,11,12,12,13,13,14,14,15,15,16,16,17,17,18,18,19,19,20,20,21,21,22,22,23,23,24,24,25,25,26,26,27,27,28,28,29,29,30,30],"right_children":[2,4,6,8,10,12,14,16,18,20,22,24,26,28,30,32,34,36,38,40,42,44,46,48,50,52,54,56,58,60,62,-1,-1,-1,-1,-1,-1,-1,-1,-1,-1,-1,-1,-1,-1,-1,-1,-1,-1,-1,-1,-1,-1,-1,-1,-1,-1,-1,-1,-1,-1,-1,-1],"split_conditions":[-1.442701E-1,-5.7251815E-2,5.734717E-2,-7.7517676E-1,3.9290398E-1,1.7840976E-1,1.5229167E-1,-1.5125166E-1,-4.9795997E-1,-5.037363E-1,-1.2957081E0,-4.4985217E-1,-4.2209968E-1,3.4963265E-1,5.2565706E-1,-2.9644257E-1,-9.2611104E-1,-3.1714362E-1,-2.8266612E-1,-4.3152595E-1,-4.5157645E-2,2.232545E0,1.0000155E0,-1.3995128E0,-1.1446921E-1,-1.2493166E0,6.4498717E-1,2.8538864E-2,-6.220524E-1,-6.076302E-1,-6.203807E-1,5.8415174E-2,5.0622463E-2,5.0211556E-2,-1.2375144E-2,5.0480634E-2,3.6359858E-2,3.5751652E-2,1.5264444E-2,4.761475E-2,2.2504361E-2,-3.4350895E-3,1.5374283E-2,3.9548602E-2,-1.748654E-2,-3.587192E-3,-2.5812102E-2,5.8216285E-2,2.6174853E-2,-3.0386213E-3,1.0889795E-2,2.2803422E-2,-3.2804196E-3,-1.6748328E-2,-3.9701458E-2,-8.00931E-3,-2.7422745E-2,1.0690103E-2,-3.4506094E-2,-2.2892958E-2,-4.4464093E-2,-4.0981293E-2,-5.2726496E-2],"split_indices":[6,8,8,6,8,6,6,8,8,6,6,8,8,8,6,5,6,5,5,5,3,8,8,8,3,8,6,6,0,0,0,0,0,0,0,0,0,0,0,0,0,0,0,0,0,0,0,0,0,0,0,0,0,0,0,0,0,0,0,0,0,0,0],"split_type":[0,0,0,0,0,0,0,0,0,0,0,0,0,0,0,0,0,0,0,0,0,0,0,0,0,0,0,0,0,0,0,0,0,0,0,0,0,0,0,0,0,0,0,0,0,0,0,0,0,0,0,0,0,0,0,0,0,0,0,0,0,0,0],"sum_hessian":[7.2359976E3,3.0506587E3,4.185339E3,1.7818888E3,1.2687699E3,2.0550737E3,2.1302651E3,6.65136E2,1.1167528E3,6.7596936E2,5.928005E2,9.266479E2,1.128426E3,7.16356E2,1.413909E3,6.373019E2,2.7834122E1,5.115829E2,6.051699E2,2.4486781E2,4.3110156E2,6.2175194E1,5.306253E2,3.135625E2,6.130853E2,5.474272E2,5.809988E2,3.434445E2,3.7291156E2,6.169131E2,7.96996E2,2.2997849E2,4.073234E2,2.0336397E1,7.497724E0,2.2438525E2,2.8719763E2,3.8834506E2,2.1682484E2,7.436941E1,1.7049841E2,2.3658116E2,1.945204E2,4.5183384E1,1.6991808E1,3.443364E2,1.8628893E2,3.619559E1,2.773669E2,2.545954E2,3.5848996E2,1.2956793E2,4.1785925E2,3.9466214E2,1.8633667E2,2.1597173E2,1.2747276E2,9.383746E0,3.635278E2,1.3099712E2,4.8591595E2,1.05834015E2,6.911619E2],"tree_param":{"num_deleted":"0","num_feature":"9","num_nodes":"63","size_leaf_vector":"1"}},{"base_weights":[-8.712031E-4,5.623694E-1,-3.4134242E-1,7.24155E-1,2.0369042E-1,-5.5601407E-2,-5.9626293E-1,9.7488827E-1,5.7163084E-1,-7.05326E-1,2.4001455E-1,2.2396126E-1,-2.883881E-1,-2.62511E-1,-7.8320104E-1,1.0882589E0,8.773253E-1,4.3176243E-1,8.1165177E-1,-3.0183777E-1,-1.3048052E0,3.3065653E-1,-6.689454E-2,9.478504E-2,5.843089E-1,-1.7889813E-1,-5.2203333E-1,-3.9340198E-1,4.674145E-1,-6.108015E-1,-9.174588E-1,4.913805E-2,5.8314808E-2,5.1906344E-2,3.3619348E-2,3.774419E-2,3.6893252E-3,5.1751908E-2,3.1127367E-2,2.3190243E-2,-3.5123106E-2,-7.0390895E-2,-8.843982E-3,3.2002922E-2,1.1754866E-2,-3.8818293E-4,-3.2769468E-2,2.2657333E-2,-8.203611E-3,5.8655143E-2,2.346855E-2,-5.3646486E-2,-7.4769775E-3,-1.6102357E-2,-4.0371567E-2,2.0125022E-3,-2.9422358E-2,4.9179237E-2,1.5270098E-2,-1.7035736E-2,-3.8581997E-2,-4.2010136E-2,-5.3562194E-2],"categories":[],"categories_nodes":[],"categories_segments":[],"categories_sizes":[],"default_left":[0,0,0,0,0,0,0,0,0,0,0,0,0,0,0,0,0,0,0,0,0,0,0,0,0,0,0,0,0,0,0,0,0,0,0,0,0,0,0,0,0,0,0,0,0,0,0,0,0,0,0,0,0,0,0,0,0,0,0,0,0,0,0],"id":23,"left_children":[1,3,5,7,9,11,13,15,17,19,21,23,25,27,29,31,33,35,37,39,41,43,45,47,49,51,53,55,57,59,61,-1,-1,-1,-1,-1,-1,-1,-1,-1,-1,-1,-1,-1,-1,-1,-1,-1,-1,-1,-1,-1,-1,-1,-1,-1,-1,-1,-1,-1,-1,-1,-1],"loss_changes":[1.3687148E3,1.5589221E2,3.2399274E2,7.029645E1,2.781496E1,1.366321E2,1.4646808E2,6.7804565E0,3.840396E1,7.449232E0,2.2439518E1,4.4352757E1,2.9210144E1,8.0965164E1,3.4305786E1,1.482605E0,1.1858734E1,8.455669E1,1.7262115E1,6.669575E0,1.2316551E0,1.8247734E1,6.417364E0,6.533111E1,1.6473305E1,2.035187E1,2.0571869E1,6.0710686E1,1.0489183E1,2.8516037E1,9.137756E0,0E0,0E0,0E0,0E0,0E0,0E0,0E0,0E0,0E0,0E0,0E0,0E0,0E0,0E0,0E0,0E0,0E0,0E0,0E0,0E0,0E0,0E0,0E0,0E0,0E0,0E0,0E0,0E0,0E0,0E0,0E0,0E0],"parents":[2147483647,0,0,1,1,2,2,3,3,4,4,5,5,6,6,7,7,8,8,9,9,10,10,11,11,12,12,13,13,14,14,15,15,16,16,17,17,18,18,19,19,20,20,21,21,22,22,23,23,24,24,25,25,26,26,27,27,28,28,29,29,30,30],"right_children":[2,4,6,8,10,12,14,16,18,20,22,24,26,28,30,32,34,36,38,40,42,44,46,48,50,52,54,56,58,60,62,-1,-1,-1,-1,-1,-1,-1,-1,-1,-1,-1,-1,-1,-1,-1,-1,-1,-1,-1,-1,-1,-1,-1,-1,-1,-1,-1,-1,-1,-1,-1,-1],"split_conditions":[-2.07166E-1,2.2919948E-1,1.9805297E-1,-8.1225824E-1,-1.2097727E-1,6.553011E-2,-2.0825063E-1,-1.3397288E0,-1.2070205E-1,-5.4582083E-1,1.1540496E0,-1.1737388E-1,5.443668E-2,-1.2292421E-1,5.2565706E-1,-1.2876433E-1,-1.1994709E-1,-8.562155E-1,-1.9669098E-1,4.2670724E-1,-1.21103145E-1,-7.7517676E-1,2.0267982E0,-8.709594E-1,-5.286697E-1,-1.2195823E-1,8.731875E-1,-1.1185737E0,-6.020135E-1,4.146888E-1,1.0458624E0,4.913805E-2,5.8314808E-2,5.1906344E-2,3.3619348E-2,3.774419E-2,3.6893252E-3,5.1751908E-2,3.1127367E-2,2.3190243E-2,-3.5123106E-2,-7.0390895E-2,-8.843982E-3,3.2002922E-2,1.1754866E-2,-3.8818293E-4,-3.2769468E-2,2.2657333E-2,-8.203611E-3,5.8655143E-2,2.346855E-2,-5.3646486E-2,-7.4769775E-3,-1.6102357E-2,-4.0371567E-2,2.0125022E-3,-2.9422358E-2,4.9179237E-2,1.5270098E-2,-1.7035736E-2,-3.8581997E-2,-4.2010136E-2,-5.3562194E-2],"split_indices":[6,2,6,6,3,2,2,6,3,4,2,3,6,3,6,3,5,2,2,2,3,6,2,2,2,3,2,2,2,2,2,0,0,0,0,0,0,0,0,0,0,0,0,0,0,0,0,0,0,0,0,0,0,0,0,0,0,0,0,0,0,0,0],"split_type":[0,0,0,0,0,0,0,0,0,0,0,0,0,0,0,0,0,0,0,0,0,0,0,0,0,0,0,0,0,0,0,0,0,0,0,0,0,0,0,0,0,0,0,0,0,0,0,0,0,0,0,0,0,0,0,0,0,0,0,0,0,0,0],"sum_hessian":[7.1353755E3,2.6879897E3,4.4473857E3,1.85173E3,8.3625964E2,2.0975051E3,2.3498806E3,6.983411E2,1.1533889E3,3.142508E1,